svm_type C_SVC
kernel_type RBF
gamma 0.0105496089544389
key 1
weight 1.91705926830687
C 2
probability True
nr_class 2
total_sv 6283
rho -1.2990570539296
label 1 -1
probA -2.08329537299714
probB -0.192256743799283
nr_sv 3271 3012
SV
0.958529634153435 0:-0.699798518223318 1:0.803011604481735 2:-0.595342771100461 3:0.0840760180207797 4:-0.20033646604541 5:0.704491247868208 6:-0.592448217155756 7:0.915249241512115 8:-1.19501498022528 9:-1.32808398991669 10:0.0170745742637792 11:0.861966654099452 12:1.95759219431769 13:0.705807319979128 14:-0.0306342933547691 15:0.0444417746532048 16:0.0289481399141878 17:-0.0364486874751562 18:-0.304215760476607 19:-1.2018912117799 20:-1.73553660577912 21:-1.33850585689224 22:0.752954053746969 23:-1.8144051697917 24:-0.887297801906074 25:-0.919889176059064 26:-2.50049290786289 27:1.28577885718256 28:0.383330284370472
0.958529634153435 0:-0.674319938639158 1:0.728509101695473 2:-0.316837804094766 3:0.000956339255788683 4:-0.0858085780978239 5:0.469266040748475 6:-0.0624690744949268 7:-0.0749093652711008 8:-0.971401801405864 9:-1.35340767143026 10:-0.606321279529872 11:2.80419656747674 12:1.59711026137045 13:0.281597307173655 14:-0.259251500209623 15:-0.048340069330294 16:-0.197504500396525 17:0.494442979954269 18:-0.289861429659913 19:-1.23018726688682 20:-2.42960853384321 21:-1.87548130622722 22:0.379894090190228 23:-0.412524731252456 24:-0.329629093018738 25:0.395254438548006 26:-1.81216127220928 27:-0.0620949435794855 28:-1.07184480085797
0.958529634153435 0:-0.792158369215895 1:0.742321793023846 2:0.37661637303954 3:-0.17916546977211 4:-0.606587826092268 5:0.480834493557642 6:-0.499401648791635 7:1.64261693843817 8:-1.21477107135532 9:-1.38073828738259 10:-0.190787554875835 11:2.76956142250152 12:1.40716496085646 13:0.246800787894976 14:-0.367799976268627 15:-0.00141215341826428 16:-0.298593705556834 17:-0.0643935362408088 18:-0.0584160507335512 19:-1.27985149274045 20:-2.45405050973072 21:-2.10922390083318 22:-0.231609756073425 23:-0.767415753978825 24:-0.893385111430162 25:0.831897048305612 26:-1.20749768135829 27:0.798604225251858 28:1.34320106583515
0.958529634153435 0:-0.722092275359457 1:0.847896508247941 2:-0.151709600822077 3:0.10100614416371 4:-0.516979114674567 5:0.411423776702638 6:-0.375124288941771 7:0.347433168427904 8:-0.814118912631274 9:-1.39230014475658 10:-0.421522640287832 11:3.7560359156484 12:0.863723409063604 13:0.0987591165397093 14:0.221709883405277 15:0.0662006662623889 16:-0.127696548951671 17:0.407388979884252 18:-0.46602481242709 19:-1.26265149243994 20:-1.77681588226434 21:-2.43490206263657 22:-1.01177502754243 23:-0.469906071056958 24:-0.600326659820219 25:0.0412106619551288 26:-0.622461318452991 27:0.608224554044674 28:-1.81495233048776
0.958529634153435 0:-0.508709171342123 1:0.745065868184651 2:-0.340056934471161 3:0.277393292959828 4:-0.428550834910243 5:0.631224380076815 6:-0.117447086022772 7:-0.00921163780680789 8:-0.728974899802617 9:-1.39906642020978 10:-0.605103977847136 11:1.79930543486573 12:2.18461346361411 13:0.461895147367066 14:-0.116766617187492 15:-0.00136019587836364 16:-0.0914736968042521 17:0.490299992158716 18:-0.676647139739624 19:-1.44652681473589 20:-2.70488275933605 21:-1.79970060072569 22:0.171460736482241 23:-1.23786828463387 24:-1.38417385610495 25:-0.908881988765573 26:-1.93511256156029 27:0.510190174315227 28:-0.705489635301556
0.958529634153435 0:-0.639286891710939 1:0.800111268857471 2:-0.325473096084615 3:0.215462710325266 4:-0.353624553922 5:0.592662870712925 6:-0.126306729294009 7:0.286428135782491 8:-0.867120191905963 9:-1.39821084006552 10:-0.662563768996599 11:2.12360623369614 12:2.00201799774369 13:0.397571576810022 14:-0.106472703174728 15:0.321415748179182 16:-0.105205119223464 17:0.568374297979261 18:-0.693014918779948 19:-1.49262956608846 20:-2.23431950243256 21:-2.24966022981228 22:0.469829782656141 23:-0.83391706638418 24:-1.06331899513242 25:-0.0466849019881289 26:-1.59561706187676 27:-0.0177461925099337 28:-0.406746790530216
0.958529634153435 0:-0.28258677753271 1:0.807178947119344 2:-0.11170724004879 3:0.302226424566641 4:-0.501891724538127 5:0.369006116402359 6:-0.232046481834339 7:0.295813525420251 8:-0.444969649546251 9:-1.38189535548925 10:-0.41596904594652 11:4.01911780167409 12:0.695104852146071 13:-0.0462461003803821 14:0.239871113327825 15:0.342102957448224 16:-0.0906793228312318 17:0.533808746320982 18:-0.538186736729393 19:-1.20053592780614 20:-1.69286237420434 21:-2.72586410068213 22:-1.0023811374984 23:-0.286574909347966 24:-0.541660492787304 25:0.0690003936248016 26:-1.06392179162027 27:0.181733419453059 28:-1.50262555558116
0.958529634153435 0:-0.346283226493108 1:0.865222721300111 2:-0.560631871813338 3:0.246279297792274 4:-0.385877645473899 5:0.565669814158201 6:-0.0297251308069483 7:0.244193882412591 8:-0.633600419826683 9:-1.34166745453184 10:-0.653557120380177 11:3.49301041985335 12:1.07088784781449 13:0.447714268530064 14:-0.198981865026754 15:-0.222635390841093 16:-0.142336838285939 17:0.658440836777189 18:-0.389057660534886 19:-1.24543224526778 20:-2.37841140769366 21:-1.36896309173919 22:0.294396287910734 23:-0.635594693731636 24:0.0547054061847613 25:0.84643609158233 26:0.0206674447543853 27:0.244693756377955 28:-2.6007869003047
0.958529634153435 0:-0.397240385661426 1:0.803167169689556 2:-0.659996738851834 3:0.198285937080441 4:-0.117647386433065 5:0.449985286066529 6:-0.161185261379548 7:0.600838688647303 8:-0.666551418574227 9:-1.41729143768064 10:-0.781271819080529 11:3.80146950330039 12:1.23469098604835 13:0.178534465129946 14:0.000952635491412101 15:-0.150259914253941 16:-0.211933874634991 17:0.340956778514275 18:-0.606899988967136 19:-1.49043536002563 20:-2.7609335000997 21:-2.08535476907377 22:-0.966481481151205 23:-0.227233245365365 24:-0.0809995555686012 25:0.397103800564558 26:0.295548032571895 27:1.13850406245523 28:-0.879586651615453
0.958529634153435 0:-1.08834685688175 1:0.871874594398615 2:-0.956926238538727 3:-0.116987470788777 4:-0.345373037849334 5:0.623512078204037 6:0.0194624502423328 7:0.675921805749343 8:-1.52349732710559 9:-1.41908205821977 10:-0.535910755001346 11:2.46374220463718 12:1.7712501772814 13:0.217640328317057 14:0.277140786449083 15:0.154332003221991 16:-0.271029309375069 17:0.623796004677098 18:-0.463612064520544 19:-1.80101029939813 20:-1.87835491641401 21:-2.47330677771941 22:-0.301188314581252 23:-0.847767543293021 24:-0.543357139448304 25:-0.0235907047671288 26:-0.133731781152343 27:2.20406172948277 28:-0.277963293378304
0.958529634153435 0:-0.693428873327278 1:0.638524494718403 2:-0.14015761619977 3:0.152948597624956 4:-0.0762050199724844 5:0.85873728532377 6:-0.479093192222484 7:0.413130895892191 8:-1.36519280206311 9:-1.31142677584339 10:0.0106598170303946 11:-0.214207751855271 12:2.44945635023709 13:0.928338260684138 14:-0.00921175450196952 15:0.14750006409365 16:0.220277480173466 17:-0.003057334599313 18:-0.399332066945236 19:-1.20253034962073 20:-1.3472483443049 21:-0.813313720689612 22:2.06706159233093 23:-2.30151772843758 24:-2.03359920836526 25:-1.74096801373256 26:-1.42629107771571 27:2.557307509077 28:-0.55715746365807
0.958529634153435 0:0.156918720294037 1:0.844537194450779 2:-0.829040803399059 3:0.634389729374469 4:-0.209356072458015 5:0.48854679543042 6:-0.362353051799589 7:0.779161091764656 8:0.0689156072498188 9:-1.41128182804063 10:-0.437222922894961 11:3.16267312453685 12:1.31800679427386 13:0.171000276808485 14:-0.101022244712062 15:0.160857762654088 16:0.017582915856403 17:0.346718883121942 18:-0.710325188682611 19:-1.03056947853224 20:-2.47117998982676 21:-2.08881494313712 22:-0.319144037979411 23:-0.932839013001547 24:-1.13033406169541 25:-0.495507044623469 26:-2.38715027855719 27:-0.347767085963011 28:-1.6780620686487
0.958529634153435 0:-0.836745883488173 1:0.713270485999708 2:-0.193653986990286 3:-0.0556186769411776 4:-0.368146535583974 5:0.422992229511806 6:-0.0213607640807408 7:0.352125863246784 8:-1.16252679160557 9:-1.42224930036948 10:-0.647430413360401 11:3.80393331480498 12:1.07438465815726 13:0.0522493341026127 14:-0.00961596972525957 15:0.632780777750283 16:-0.0991617868966133 17:0.450785244892541 18:-0.743440651490657 19:-1.62239036478034 20:-2.05303592398999 21:-3.49972657390433 22:-0.242189901276061 23:-0.751418193971995 24:-0.538220250136473 25:0.208660280002495 26:-1.6577382475408 27:-0.663178760753359 28:-1.18660119321375
0.958529634153435 0:-0.855854818176293 1:0.846261911307485 2:-1.64060524128724 3:-0.00826828124868989 4:-0.279792342990719 5:0.650505134758761 6:-0.0739768795586864 7:0.342740473609024 8:-1.13147340584401 9:-1.35168373232992 10:-0.686329834709956 11:3.36885384264848 12:1.26299906630608 13:0.347290284889653 14:-0.187825667281767 15:-0.238482290168413 16:-0.195173040228043 17:0.567341485748721 18:-0.269056216903562 19:-1.34901246062771 20:-2.26564940460521 21:-1.4159870954113 22:0.647032300739474 23:-0.355481749896751 24:9.86835215453982E-05 25:0.699042201740947 26:0.0683754547220385 27:0.505670763389097 28:-2.49130769757213
0.958529634153435 0:-0.671135116191138 1:0.834656607499952 2:-0.200032748170714 3:0.15706536805491 4:-0.631836969782864 5:0.546389059476256 6:0.0830786234440954 7:0.549219045639644 8:-1.10336970809118 9:-1.41945782629024 10:-0.372361946779527 11:2.26064524879845 12:1.69015624550179 13:0.2574623253466 14:0.448988795010182 15:0.181944649628483 16:-0.197434833189462 17:0.742659597105184 18:-0.636637450019947 19:-1.8070597565017 20:-1.92232880029845 21:-2.38534569247066 22:-0.754454384229838 23:-0.772615527880636 24:-0.313615147369779 25:-0.0297037436720236 26:0.333178797424193 27:2.68122222765877 28:-0.421778278535218
0.958529634153435 0:-0.95139949161689 1:0.847454038578499 2:-1.54333998478267 3:0.0426636497405558 4:-0.234464094952629 5:0.712203549740986 6:-0.183335295408065 7:0.57268251973403 8:-1.23019877172053 9:-1.39752273780437 10:-0.72951504257255 11:3.12164166693677 12:1.29360247375475 13:0.706169255601589 14:0.0144756418675015 15:-0.19424393207434 16:-0.227739260794941 17:0.390205523106141 18:-0.480196692128285 19:-1.62586393169541 20:-2.24862379976836 21:-1.48005850654212 22:0.0858833271319702 23:-0.5059036720182 24:0.116339791825021 25:0.779845120692794 26:0.130006448676263 27:0.438815025002727 28:-2.13697405153019
0.958529634153435 0:-0.247553730604491 1:0.820470710162712 2:-0.435412756865319 3:0.30786155829491 4:-0.499300814491548 5:0.561813663221812 6:0.147977761997758 7:0.53983365600189 8:-0.558173931335772 9:-1.37420481700622 10:-0.810665111277039 11:3.6511420233064 12:1.2276289448014 13:0.362773822332418 14:-0.222901289159473 15:-0.245191180728278 16:-0.176230130899977 17:0.675846939629628 18:-0.589042978142777 19:-1.36036963555352 20:-2.80547340110608 21:-1.32901448385435 22:0.140473208884069 23:-0.346519113386118 24:0.00758879195267768 25:1.00255454750181 26:0.359005203955092 27:-0.0391009243411086 28:-2.58324145674842
0.958529634153435 0:0.214245524358395 1:0.530638080749088 2:0.203775317542613 3:0.442173882004204 4:-0.20473109272933 5:0.230184682692352 6:0.151932380062272 7:-0.370549138860393 8:-0.0586138461255718 9:-1.3556819863246 10:-0.505239879324208 11:4.36038084650099 12:0.567145087546384 13:0.115456808700929 14:-0.275586228182265 15:0.213383717599095 16:-0.162695674532145 17:0.573267173156199 18:-0.386455188703379 19:-0.977841722807852 20:-2.38641678188854 21:-2.38292940644453 22:-0.285028009897537 23:-0.242378401810358 24:-0.209168944872414 25:1.2835793236327 26:-1.92314673938807 27:-1.34007402233851 28:-1.52132425231573
0.958529634153435 0:-0.750755677391637 1:0.828242315961067 2:0.149124158566271 3:0.0267237706598045 4:-0.588017613047822 5:0.523252153857921 6:0.129400947178157 7:0.558604435277403 8:-1.0539612578502 9:-1.37738217796472 10:-0.810207146961689 11:3.66453561238941 12:1.19899631606607 13:0.437181866159572 14:-0.252821645844485 15:-0.274355556970206 16:-0.200368021470953 17:0.661180081102194 18:-0.391632009842178 19:-1.36214326744042 20:-2.58405702980055 21:-1.36065521687041 22:0.426094467860294 23:-0.310279377285305 24:0.320819536715836 25:0.978607245967022 26:0.240509490608564 27:0.0819592469000731 28:-2.27478541277134
0.599719361485023 0:-0.97050842630501 1:0.759640375659308 2:-0.386178191842447 3:-0.123079050603987 4:-0.38113471355952 5:0.573382116030979 6:0.0568329112714475 7:0.361511252884537 8:-1.3396066408692 9:-1.37959343499472 10:-0.695930261921672 11:3.81013159741034 12:1.02195663237366 13:0.361786117969173 14:-0.199391199158311 15:-0.164859829184993 16:-0.135751235580607 17:0.560016906663422 18:-0.357943554764623 19:-1.47464105933546 20:-2.28917473050878 21:-1.75457439438109 22:0.728572931040542 23:-0.803357689632513 24:0.352096681099426 25:0.983775042315833 26:0.350164058392235 27:0.330159010961992 28:-2.38365049860326
0.958529634153435 0:-0.849485173280253 1:0.857534232466982 2:-0.0400444534390067 3:0.0349601579487058 4:-0.450220705237236 5:0.631224380076815 6:-0.570329899791134 7:1.08887894981059 8:-1.34728747551557 9:-1.40631848424439 10:-0.502624925362189 11:2.38239404978119 12:1.44537290800317 13:0.82774013004382 14:-0.0844911176824096 15:0.461164014500278 16:-0.0614845195836871 17:-0.00653645279414494 18:-0.596821987262815 19:-1.56898243514139 20:-1.80325257854676 21:-2.08203566897816 22:0.788008249215808 23:-1.21467804772943 24:-0.741841948052091 25:0.186481196631778 26:-1.62677197617641 27:-0.372136958184878 28:-0.662170062968575
0.958529634153435 0:-0.0564643837232963 1:0.839158142451439 2:-0.30364682634483 3:0.307393557860946 4:-0.520737047541639 5:0.361293814529581 6:-0.353527248884955 7:0.427208980348824 8:-0.490560683667328 9:-1.42856663950057 10:-0.721254560084832 11:4.0802609444095 12:1.06524612118866 13:0.0546228874964571 14:0.0318712847366903 15:-0.0605914740980534 16:-0.0976771888854602 17:0.177365609642134 18:-0.797643669186761 19:-1.42998579050548 20:-2.57979221178985 21:-2.45775666069651 22:-0.840811204646393 23:-0.272929711020657 24:0.0352160427494917 25:0.0244231831636729 26:0.145434960090644 27:0.264846243849888 28:-2.01865903525451
0.267665199104752 0:-0.27303231018865 1:0.808860110843141 2:-0.999675513152864 3:0.453635252877914 4:0.0366208239727848 5:0.596519021649314 6:-0.559534678773656 7:1.51122148350959 8:-0.606145048180765 9:-1.41537184519264 10:-0.552313282983111 11:0.653122075685761 12:2.79136134716092 13:0.752667435734525 14:-0.463300962760373 15:0.289852236375996 16:0.0206095136067545 17:-0.139034952544406 18:-0.819067913214485 19:-1.18520949784841 20:-2.4476629708589 21:-1.40525456072813 22:1.96525604580047 23:-1.13987062051582 24:-1.27571503182047 25:-0.572372173116902 26:-3.3938292617668 27:-1.7773335834862 28:0.586011950622199
0.958529634153435 0:-1.32402371803522 1:0.731052649014422 2:0.22114055664925 3:-0.266950797800557 4:-0.624471266100555 5:0.785470417532378 6:0.0891960641572782 7:0.291120830601371 8:-1.72563787074486 9:-1.34896841486002 10:-0.619681246257421 11:2.90408533947496 12:1.51099067799317 13:0.365080554752892 14:-0.163530523596951 15:-0.339329394623079 16:-0.24485108255783 17:0.530008813346207 18:-0.0906110691398423 19:-1.50614389952228 20:-2.25167127561514 21:-1.16040796084315 22:1.01245748291273 23:-0.571222962242241 24:-0.10550069773317 25:0.340915300650669 26:0.246708546532009 27:0.586899351542979 28:-2.80877392232505
0.958529634153435 0:-0.862224463072333 1:0.860536900001327 2:0.196937542528692 3:0.262205755129108 4:-0.650952803492478 5:0.797038870341545 6:-0.298943865408963 7:0.929327325968749 8:-1.14684124055215 9:-1.37599200909609 10:-0.589987175063868 11:1.52327474379643 12:1.90216727789243 13:0.741561940301011 14:0.262387607307961 15:0.878085038093936 16:-0.156890669389913 17:0.569672903733803 18:-0.625961032275905 19:-1.67593621410342 20:-1.20632658108823 21:-1.99731137332452 22:0.649875925532842 23:-0.790989557144809 24:-1.49261636326368 25:0.301123194089696 26:-1.13791023229903 27:1.02076414445986 28:-0.450878782547692
0.958529634153435 0:-0.795343191663915 1:0.868301396217384 2:-0.235431973497512 3:0.227656302751266 4:-0.357966211741665 5:0.716059700677375 6:0.19848187971991 7:0.305198915058004 8:-0.928675155808123 9:-1.40115449031679 10:-0.790150562463849 11:3.25713795049732 12:1.24276873766825 13:0.358398749515921 14:0.363647623474185 15:0.502837093823026 16:-0.152422344688567 17:0.898052087797746 18:-0.796831029455135 19:-1.56676227908524 20:-1.76709926891854 21:-2.4679490219594 22:-0.680593620982224 23:-0.736521126399174 24:-1.09472360105814 25:0.849600834358362 26:1.07385979210172 27:1.27365663695716 28:-2.15300141546502
0.958529634153435 0:-0.387685918317366 1:0.955071836188249 2:-0.323863449428885 3:0.493255162356461 4:-0.644458636090975 5:0.619655927267648 6:-0.543651792770884 7:1.18742554100702 8:-0.479067287845422 9:-1.39152845545813 10:-0.209551625814817 11:3.48779789186054 12:0.404447271501446 13:0.59172907166487 14:0.456021520360731 15:0.554575460079801 16:0.176062792853811 17:0.395134563350838 18:-0.779724010847708 19:-1.30346933975764 20:-1.4834831021344 21:-2.39989564412392 22:-0.692559370704214 23:-1.72148207915126 24:0.44235909519175 25:0.721414055829024 26:-1.21234153607303 27:1.00927527472635 28:-0.685950816622662
0.958529634153435 0:-0.400425208109446 1:0.825197223759036 2:-0.145352521358831 3:0.319858123020993 4:-0.424457531667004 5:0.592662870712925 6:-0.342116400400341 7:0.478828623356484 8:-0.662975301462826 9:-1.3999999653392 10:-0.76952912849448 11:3.53372167547307 12:1.01531465025028 13:0.806816215298742 14:-0.0897466350607643 15:-0.130720930999037 16:-0.152006047308087 17:0.197581951271532 18:-0.708964794888513 19:-1.44309026050085 20:-2.68632825506267 21:-1.44358650350075 22:0.0167773331322778 23:-0.62450640005159 24:0.0166419733944044 25:0.935959453292176 26:-0.27194066472059 27:0.291745699272503 28:-2.0605640776827
0.958529634153435 0:-0.645656536606979 1:0.844334342325878 2:-0.186917575225098 3:0.403197117149367 4:-0.365418497555516 5:0.739196606295709 6:0.0835674861019087 7:0.244193882412591 8:-0.751595030549962 9:-1.39207469948468 10:-0.402682276799278 11:2.11934842701333 12:1.58087603399009 13:0.407739743398416 14:0.592531772435472 15:0.376401454868058 16:-0.14138455579643 17:0.912630197386886 18:-0.740499911822317 19:-1.60690053795463 20:-1.7654261288184 21:-2.02484590562857 22:-0.612204129630851 23:-0.390112600390754 24:-0.499648451699815 25:0.0913529968217142 26:0.601420941083781 27:2.76655511334589 28:-0.426291295808564
0.958529634153435 0:-1.06605309974561 1:0.817802981370933 2:-0.00175179330861228 3:-0.0598149956081816 4:-0.574264919225194 5:0.700635096931818 6:-0.170610570379072 7:0.370896642522291 8:-1.39353891328958 9:-1.40787709943712 10:-0.813046889665068 11:3.2323429475167 12:1.44168150708051 13:0.503035256452647 14:-0.071465697794822 15:-0.165797653684923 16:-0.188740965195716 17:0.351208624470024 18:-0.519393868324324 19:-1.67745674472423 20:-2.4019608670788 21:-1.63821092498432 22:0.245542158610835 23:-0.885972984183109 24:0.139655315806103 25:0.6625525221725 26:-0.348670033558362 27:0.270448469586638 28:-2.34551295688972
0.958529634153435 0:-0.499154703998063 1:0.860723263272088 2:-0.297080805071955 3:0.215898083181735 4:-0.6152719545173 5:0.449985286066529 6:-0.371741919919119 7:0.915249241512115 8:-0.712530742904345 9:-1.42812111253412 10:-0.889395790990112 11:3.76274017552302 12:1.34568589710476 13:0.179544316023806 14:-0.0374914012834801 15:0.0389599978790755 16:-0.185111618625694 17:0.144490633049821 18:-0.875856413657915 19:-1.5382246405269 20:-2.67151538828767 21:-2.24824068303632 22:-0.575985172807974 23:-0.0590081289776439 24:-0.0680000046725213 25:0.50346824915533 26:0.411751888664855 27:0.388335404502628 28:-1.43298144342172
0.958529634153435 0:-0.667950293743118 1:0.736106414273469 2:0.202855757777006 3:0.158102642692496 4:-0.592283879148944 5:0.785470417532378 6:0.0961268340032289 7:0.441287064805457 8:-0.998094822337056 9:-1.41787206968857 10:-0.759303717332623 11:3.0779779063766 12:1.63138188407823 13:0.337756712831791 14:-0.0737443807226223 15:-0.24238513785679 16:-0.207771922451692 17:0.472437095123853 18:-0.673052576959912 19:-1.70048409962628 20:-2.87307825617622 21:-1.41959215465666 22:0.199533273043333 23:-0.54814771272706 24:-0.364827398831637 25:0.450329622269376 26:0.361591770654326 27:0.598920455133638 28:-2.12189077062779
0.958529634153435 0:0.000862420341061327 1:0.815499783854728 2:-0.197570223104784 3:0.522098060611777 4:-0.426364736727918 5:0.704491247868208 6:-0.226540809500479 7:0.441287064805457 8:-0.418983805102928 9:-1.40826355597632 10:-0.720469082146573 11:3.20275027290208 12:1.29513840725093 13:0.56706373727316 14:0.00975850414592833 15:0.0331573428285055 16:-0.170356973691156 17:0.357668644902126 18:-0.81235670654148 19:-1.500558114696 20:-2.59836010050989 21:-1.50066588480109 22:-0.102167330960769 23:-0.17262046037663 24:-0.453859435897101 25:0.529435123337191 26:0.0434432525848088 27:0.617942405067988 28:-1.68860577712494
0.958529634153435 0:-0.712537808015397 1:0.905832755767063 2:-0.125278535562104 3:0.350951994506701 4:-0.423686825381714 5:0.831744228769047 6:0.219165875057533 7:0.366203947703411 8:-0.915783239870363 9:-1.36977954530961 10:-0.58105587490672 11:2.30560307224293 12:1.41519425754376 13:0.556419560868982 14:0.607341506959024 15:0.621201771206326 16:-0.0769659619906391 17:1.09948988111827 18:-0.646483817440462 19:-1.50379363970073 20:-1.24135409473969 21:-2.21023461620916 22:-0.172671116822812 23:-1.08170175950113 24:-1.14272462117758 25:0.530453791142691 26:1.35078011580578 27:2.1330298574978 28:-1.33941043672862
0.958529634153435 0:-0.712537808015397 1:0.771250498479662 2:-0.166033582555431 3:0.503075530817969 4:-0.347921579934248 5:0.974421813415443 6:-0.078732606789568 7:0.68999989020598 8:-0.977381148289139 9:-1.40392095813534 10:-0.670572774468811 11:1.42626840349866 12:1.80692567380743 13:1.13934655683227 14:0.455681278474409 15:0.890890372054312 16:-0.160263582979131 17:0.653685055868339 18:-0.896293206418015 19:-1.80722996967271 20:-1.20240878241999 21:-1.80127110121594 22:-0.0625198842915212 23:-1.23406044258387 24:-2.29566444820495 25:0.0775789185931276 26:-0.863589574421769 27:0.266097285862424 28:-1.53849943521662
0.958529634153435 0:-0.425903787693606 1:0.85388848474144 2:-0.292527925146399 3:0.466145064270092 4:-0.538210161806961 5:0.5309644557307 6:-0.2127569019964 7:0.469443233718724 8:-0.43768095077257 9:-1.41723510183586 10:-0.773563013738694 11:3.32117057600833 12:1.17750276775096 13:0.591526562597839 14:0.189380378614412 15:0.289381718562813 16:-0.189736303422576 17:0.496354170680381 18:-0.887217823278331 19:-1.55412244811662 20:-2.33515172381098 21:-2.03112465801905 22:-0.958860038538584 23:-0.142288080818269 24:-0.557371348642749 25:1.13856659259078 26:1.12306688862839 27:0.548230417492775 28:-1.32874573383806
0.958529634153435 0:0.39896522634355 1:0.85321394435515 2:0.0216300132225747 3:0.745954601355805 4:-0.491346016841384 5:0.685210493186262 6:-0.190102203077281 7:0.49290670781311 8:0.0581598829879226 9:-1.39835016070244 10:-0.589209440508107 11:3.25256945706529 12:1.10086437497992 13:0.632242120899929 14:0.0457164915500948 15:-0.0958929309568777 16:-0.0935563129226269 17:0.498847318492672 18:-0.897797306490582 19:-1.40074525266585 20:-2.7841772491195 21:-1.39392773550914 22:-0.639516834644669 23:-0.506488980890688 24:-0.439146411532928 25:0.370558471655616 26:0.145081732297141 27:0.070005083915514 28:-2.11022520351213
0.958529634153435 0:-0.922736089584711 1:0.838712839164266 2:0.295964335283763 3:0.0309047000075295 4:-0.688811469709603 5:0.739196606295709 6:-0.333996790391249 7:0.643072942017197 8:-1.28797522041361 9:-1.36629497191745 10:-0.783086638336341 11:3.17186981726213 12:1.1442774966048 13:0.897447284165924 14:-0.0932497454472627 15:-0.162149935194312 16:-0.185255473607037 17:0.235254359670861 18:-0.515597055188468 19:-1.52177285367307 20:-2.26224287988384 21:-1.14857850580608 22:0.619561132510064 23:-0.573258530438176 24:0.150164118596106 25:0.587498884515217 26:-0.58079391591886 27:-0.206073832794259 28:-2.19136389583496
0.958529634153435 0:-0.575590442750541 1:0.821841917365589 2:-0.241243299908447 3:0.273040117308246 4:-0.675110925555169 5:0.870305738132937 6:0.104504480824266 7:0.394360116616684 8:-1.00638948496447 9:-1.40775074641383 10:-0.761444582073744 11:2.64634816746535 12:1.40874663601513 13:1.07020643144329 14:0.0231498259262465 15:-0.0784677482039781 16:-0.138239798748921 17:0.659177050137036 18:-0.753067435078753 19:-1.61719495742531 20:-2.38183896703257 21:-1.36120350066924 22:0.396968272488428 23:-0.663637152031825 24:-0.569000115860983 25:0.606228331459445 26:0.806709979196712 27:-0.00415713994915145 28:-2.18689160026048
0.958529634153435 0:-0.906811977344611 1:0.824235356456852 2:-0.543332722020401 3:0.188998881113705 4:-0.325748977502592 5:0.700635096931819 6:-0.0170309894934069 7:0.323969694333517 8:-1.09100437101567 9:-1.42711323231691 10:-0.808025807638895 11:3.04393810108501 12:1.36110046522915 13:0.546625095857785 14:0.278177714183985 15:0.595023442766386 16:-0.211395391411371 17:0.5938669712103 18:-0.898144491826235 19:-1.8046391662635 20:-2.05244842070343 21:-2.52877645828657 22:-0.671167010625506 23:-0.599463559655043 24:-1.06968920802553 25:1.16887826069672 26:1.32317223533919 27:0.612681746036442 28:-1.98073253528023
0.958529634153435 0:0.198321412118296 1:0.79318018300172 2:0.00376545445419584 3:0.615646952253943 4:-0.637666693961025 5:0.82017577595988 6:-0.0898340390160293 7:0.422516285529947 8:-0.262891357193102 9:-1.43029480659658 10:-0.603162597250602 11:3.35180218826766 12:1.00774117124418 13:0.83089907692249 14:0.0320868941580075 15:-0.0826926825306187 16:-0.107227598953259 17:0.436916554629247 18:-0.960909553736966 19:-1.60356731014663 20:-2.90547594253438 21:-1.65544141513595 22:-0.670339192919612 23:-0.865840435012324 24:-0.710285922521294 25:0.53474079062811 26:0.762630672336227 27:0.220076589260786 28:-2.03269911487632
0.958529634153435 0:-0.116976010235674 1:0.846002106340005 2:-0.122884957735072 3:0.526104507744593 4:-0.38129989140794 5:0.523252153857922 6:-0.284968717109802 7:0.272350051325858 8:-0.31686145495897 9:-1.40134108310202 10:-0.837421205040205 11:3.54453492033672 12:1.02192914400194 13:0.812794124274626 14:-0.012110602579928 15:-0.077167230927483 16:-0.0775797253085291 17:0.337916055035984 18:-0.825432780063461 19:-1.3932869599208 20:-2.75748011136043 21:-1.38234011616793 22:-0.0358495902179852 23:-0.517599859000356 24:0.281987998805464 25:1.02434596461001 26:-0.554535445987313 27:0.524186775205522 28:-1.89548484291463
0.958529634153435 0:-1.1456736609461 1:0.761444886017547 2:0.0889870696021883 3:-0.15247108397792 4:-0.374524059945721 5:0.638936681949593 6:-0.231639957827516 7:0.647765636836083 8:-1.62468883180683 9:-1.42508759272072 10:-0.743240182782686 11:2.951317250164 12:1.62029821458483 13:0.486960645399235 14:-0.116319542266068 15:-0.0809117412746789 16:-0.231664548777719 17:0.131604269022766 18:-0.646767608591713 19:-1.7376615227737 20:-2.5774453389375 21:-1.93067958719621 22:0.369007086884468 23:-0.451214576862248 24:-0.508043153323989 25:0.0542934748085948 26:0.233166739167948 27:0.707927740501178 28:-1.89983569783549
0.958529634153435 0:-0.690244050879258 1:0.762765698291174 2:-0.544840934673229 3:0.0149839488943799 4:-0.586959038129672 5:0.712203549740986 6:-0.133794092082277 7:0.0752568689329918 8:-1.24812485706208 9:-1.39153574995777 10:-0.780592417386468 11:3.14369591585353 12:1.4848669972834 13:0.468246344049072 14:-0.223424651377157 15:-0.10024780618642 16:-0.153949345511596 17:0.286864990558164 18:-0.484535377735732 19:-1.5394400151169 20:-2.45200861987433 21:-1.76742538154072 22:1.06568125691104 23:-0.685508215771425 24:-0.0718003825415172 25:0.582392802950428 26:-0.0108759871794034 27:0.602952546414364 28:-2.45473733626621
0.958529634153435 0:-0.60425384478272 1:0.818890039058676 2:0.32764160050443 3:0.217145754810249 4:-0.74437361533692 5:0.727628153486542 6:-0.19861826530881 7:0.49759940263199 8:-0.946919319502999 9:-1.38813615038766 10:-0.827734243615981 11:3.10385055516144 12:1.44059594491895 13:0.570751960987188 14:-0.0334907026177879 15:-0.183458438061867 16:-0.142878825240389 17:0.405858331556514 18:-0.560410990552387 19:-1.51893236036594 20:-2.37387042763895 21:-1.2571279400852 22:0.174909489961851 23:-0.475600903932078 24:0.225135280150926 25:0.707338603252436 26:-0.178848562669195 27:0.133268594608784 28:-2.42762521850135
0.958529634153435 0:0.370301824311371 1:0.798430209123828 2:0.0564163620560868 3:0.623571498179251 4:-0.488658626884033 5:0.52710830479431 6:0.105575187190923 7:0.427208980348824 8:-0.00176972930641607 9:-1.36943863148032 10:-0.791799781554865 11:3.65958576036047 12:1.23935522254829 13:0.180740894239011 14:-0.139374184665416 15:-0.0928204409042807 16:-0.0641875322781418 17:0.702409739556662 18:-0.733038047583758 19:-1.23110040061912 20:-2.69985534872903 21:-1.40665014270372 22:0.0905186844258201 23:0.00225649419890758 24:0.233214967574655 25:0.82543975419077 26:0.0229569068941832 27:-0.144122034562543 28:-2.47175592405063
0.958529634153435 0:-1.57880951387681 1:0.65450071242542 2:0.134103550330415 3:-0.193858364116513 4:-0.207289381575764 5:0.7777581156596 6:-0.54002273150714 7:1.47837261977745 8:-1.79272642778743 9:-1.38860645202257 10:-0.605475373219139 11:1.00050140709966 12:2.73946974256535 13:0.459658861262275 14:0.0184492016826387 15:-0.403204245956622 16:-0.347698755079402 17:-0.468110610855698 18:-0.14323997377972 19:-1.63334033670546 20:-2.69966900220851 21:-0.838343290317018 22:0.0372571359977928 23:-0.467712344287659 24:-0.452972236738958 25:-0.768819880808508 26:-0.314660643283668 27:3.04041269120063 28:-0.531296773280933
0.958529634153435 0:-0.556481508062421 1:0.764811865004451 2:0.254441197952611 3:0.289188806146837 4:-0.606006524347623 5:0.546389059476256 6:-0.133025194712338 7:0.549219045639644 8:-0.733869664587775 9:-1.4184111442323 10:-0.91782725426706 11:3.88955681344305 12:0.803625054565191 13:1.03725958100224 14:-0.0204690033390383 15:-0.184255757575559 16:-0.183669650056943 17:0.258768231500083 18:-0.948783632109523 19:-1.64956502049635 20:-2.99066417034118 21:-1.41261660312436 22:-0.202765786740481 23:-0.439821679650289 24:0.513932876701629 25:1.00373139680713 26:-0.994553827453329 27:-0.219998899188681 28:-2.18016386257224
0.958529634153435 0:0.73337158338564 1:0.640081174099499 2:0.216379459310911 3:0.789130403698561 4:0.00783414355493941 5:0.226328531755963 6:0.0718680723043004 7:0.108105732665138 8:0.590829457345652 9:-1.34798495341427 10:-0.369443859014845 11:4.13708521984825 12:0.56507302650075 13:0.103497931586652 14:-0.246252544353705 15:0.264795814844757 16:-0.0590199568362353 17:0.700156205414784 18:-0.503633396686018 19:-0.762720659166639 20:-2.3694156501607 21:-2.21833042934877 22:-0.397868852508559 23:-0.445032840005511 24:-0.70059571497179 25:0.914541936296971 26:-1.80838134231723 27:-1.44169942496022 28:-1.71595544692069
0.958529634153435 0:-1.04694416505749 1:0.666765535912714 2:0.547501498485741 3:-0.0872903749490732 4:-0.7313657123274 5:0.770045813786822 6:-0.546918703898479 7:1.95702749130298 8:-1.5165168546246 9:-1.43006387973786 10:-0.960179784644307 11:1.65100406182218 12:2.68042372518661 13:0.464075263655953 14:-0.163010279969751 15:-0.142938408225 16:-0.222370339895747 17:-0.345014570511349 18:-0.608547956621823 19:-1.71827121730914 20:-2.65080760341663 21:-1.57047617188996 22:0.543437523461562 23:-0.446012508557657 24:-0.267986168801198 25:-0.40579437849323 26:-0.791062857091203 27:1.86763863352985 28:-0.106363928418554
0.958529634153435 0:-0.687059228431238 1:0.831187314745777 2:0.0426998563632122 3:0.179898389303929 4:-0.462556298068797 5:0.685210493186262 6:-0.0642671038715186 7:0.361511252884534 8:-0.98211355834728 9:-1.40261302418281 10:-0.845326300828236 11:3.09929335529946 12:1.55125713896497 13:0.526646106991106 14:-0.167327381973974 15:-0.173817570450161 16:-0.148717368347926 17:0.456295216731327 18:-0.605002237901253 19:-1.57571857829662 20:-2.54751187592352 21:-1.51936188057276 22:0.563672197964045 23:-0.665845028761968 24:0.063866008077226 25:0.958646333317536 26:0.430877188189646 27:0.274388023708603 28:-2.29973735011085
0.958529634153435 0:0.319344665143052 1:0.84527562702221 2:0.0891549390407518 3:0.718240769158289 4:-0.504841181578347 5:0.677498191313484 6:-0.0412723275471 7:0.305198915058004 8:0.0223518446308672 9:-1.35227309479079 10:-0.682694254691582 11:3.00588872601333 12:1.33348366047218 13:0.504923825551197 14:-0.0560008982193848 15:-0.11464788681138 16:-0.0649570408977259 17:0.698498939759655 18:-0.689223094368542 19:-1.2390464146538 20:-2.50207955162059 21:-0.992828906260576 22:-0.0322259762699669 23:-0.295246173851517 24:0.0560646718462794 25:0.750052698399572 26:-0.111464318497374 27:-0.136307343772819 28:-2.17394745302826
0.958529634153435 0:-0.661580648847079 1:0.862797117252199 2:0.250750128444469 3:0.200913245282717 4:-0.551496970624135 5:0.785470417532378 6:-0.074304934190779 7:0.262964661688104 8:-1.04925787860701 9:-1.42070012620098 10:-0.780015122048007 11:2.91352549971821 12:1.37736875579932 13:0.923544047451939 14:0.031908107636236 15:-0.153035472936614 16:-0.177954979900163 17:0.49002208089692 18:-0.782857948692119 19:-1.67522383221887 20:-2.59705210109782 21:-1.51981440194484 22:-0.0944487365244528 23:-0.591397250960463 24:-0.365990532649506 25:0.526256686387402 26:0.544560141555308 27:0.451645226963549 28:-2.0824765639565
0.958529634153435 0:-0.887703042656492 1:0.810009883121309 2:-0.0377316575842064 3:0.0674313299388566 4:-0.620028690262379 5:0.743052757232098 6:-0.351753986186363 7:0.319276999514634 8:-1.28296424107981 9:-1.39556180080137 10:-0.818362188287735 11:3.01732203799679 12:1.2686636919298 13:0.979999187315766 14:-0.0581294835126445 15:-0.115908760160932 16:-0.154388722186258 17:0.1414426423598 18:-0.617390949236353 19:-1.60733385076299 20:-2.36443210089822 21:-1.33002576592874 22:0.817989678980016 23:-0.608068812765497 24:-0.0899565680616852 25:0.520957839494856 26:-0.39685890824921 27:-0.102007513692847 28:-2.30347324445766
0.958529634153435 0:-1.14885848339412 1:0.720043647602478 2:-0.0636435444203327 3:-0.269098155819764 4:-0.651967079400208 5:0.82017577595988 6:-0.0729734990112634 7:0.131569206759525 8:-1.85711307297821 9:-1.37957204074698 10:-0.799357669262827 11:2.73827904359576 12:1.7688746427087 13:0.426504869053508 14:-0.24095751463739 15:-0.0814918501628185 16:-0.210017933899661 17:0.245553534899935 18:-0.411580389715537 19:-1.66409831779476 20:-2.18013529890238 21:-1.78458997486471 22:1.34467911109499 23:-0.921926204899913 24:-0.225209125374039 25:0.474851645623444 26:-0.365160637736317 27:0.92598263426421 28:-2.65415835443636
0.958529634153435 0:-0.314435002012909 1:0.762229625933357 2:-0.00601706860601084 3:0.428495921427243 4:-0.291325253760868 5:0.596519021649314 6:0.101287043044846 7:0.328662389152391 8:-0.434133438463307 9:-1.4020104340131 10:-0.821805066431021 11:3.71123073545902 12:1.14837708753941 13:0.425999233808669 14:-0.0993802415723265 15:-0.0757034140414782 16:-0.0740700369723599 17:0.606183771497643 18:-0.850967258591449 19:-1.46725628157179 20:-2.78018066075182 21:-1.61601228430977 22:0.0498822192351208 23:-0.559125918818033 24:-0.0222153578174997 25:1.33759909820046 26:0.746280223844285 27:0.362443932095283 28:-2.73281394725378
0.958529634153435 0:-0.715722630463417 1:0.82140912587242 2:-0.58462202926139 3:0.301414734103646 4:-0.642564043074214 5:0.889586492814883 6:-0.50935007694875 7:0.0846422585707452 8:-1.02500608777879 9:-1.35594711723338 10:-0.631597734256232 11:2.1730107162672 12:1.28007005489695 13:1.41586375766234 14:0.0933466039413987 15:-0.0826191176847333 16:-0.127318369531683 17:0.0595944228850493 18:-0.565429441113243 19:-1.47394515030844 20:-2.18750268957137 21:-0.995479314413849 22:0.552746276426319 23:-0.631471157614451 24:-0.472359483228785 25:0.600840209016666 26:0.340130353648204 27:0.115936634118834 28:-2.41527033295126
0.958529634153435 0:-0.702983340671338 1:0.823518488497298 2:0.324340564879374 3:0.201201479996047 4:-0.612091049552359 5:0.662073587567928 6:-0.275064908787223 7:0.248886577231465 8:-0.961708143933664 9:-1.41128231377469 10:-0.873799198243918 11:3.43569375286865 12:1.17787439669234 13:0.833274853405539 14:-0.0905759469613964 15:-0.140449371201853 16:-0.19262423020742 17:0.21437492132648 18:-0.784903277313248 19:-1.6021151414707 20:-2.70231900431074 21:-1.50413549685919 22:0.0532009728477365 23:-0.532123687917925 24:-0.170906917280644 25:0.686076619141113 26:-0.36337091228576 27:-0.0956408887329794 28:-2.52655431612936
0.958529634153435 0:-0.152009057163894 1:0.817094027242265 2:0.0799549648439403 3:0.544722018956828 4:-0.493329289837228 5:0.584950568840146 6:-0.227950198528612 7:0.506984792269744 8:-0.395483294695673 9:-1.44060536856726 10:-0.935373738285807 11:3.63038070391817 12:0.882224145832038 13:1.22976361298128 14:0.0631140794980249 15:-0.132612467606409 16:-0.100391793072253 17:0.23195477910903 18:-1.13878740936742 19:-1.67275922501054 20:-3.13028183879377 21:-1.46764576262712 22:-0.526194328144451 23:-0.625819147250536 24:0.233450676269976 25:0.845225361236263 26:-0.930286469187683 27:-0.330701052441254 28:-2.06940336885113
0.958529634153435 0:-0.785788724319855 1:0.900919867571342 2:-0.371191319455537 3:0.262994166602326 4:-0.464676174078562 5:1.01298332277933 6:-0.554626550963085 7:0.572682519734037 8:-1.34295029317424 9:-1.38595707003728 10:-0.799217297543164 11:1.27496406465142 12:1.81395022967932 13:1.62624390008851 14:0.34408534664451 15:0.167034157989532 16:0.00498071527887351 17:0.100187930454487 18:-0.88225285603591 19:-1.72101142701886 20:-1.76959839326389 21:-1.12718714193115 22:0.860529536191903 23:-1.26769357854949 24:-0.462674176789365 25:-0.112654794480439 26:-1.30854078494894 27:-0.365828520019278 28:-1.33889058547419
0.958529634153435 0:-0.527818106030243 1:0.951420558988768 2:0.188596915998261 3:0.397036904840985 4:-0.753334091187757 5:0.997558719033777 6:-0.509246822160626 7:0.779161091764656 8:-0.947971538536126 9:-1.42285863367478 10:0.288183546301383 11:0.564237910305114 12:1.74954208641102 13:1.04947803186426 14:0.276952310298622 15:0.543383836670347 16:0.299851042435605 17:0.372200476519002 18:-0.85752938683841 19:-1.43326322089567 20:-1.68459634587066 21:-1.98189696710317 22:0.674014978100948 23:-2.80725846016655 24:-0.99914691105139 25:-0.849734357370598 26:-2.76530587733642 27:1.3232405191656 28:0.401285703276933
0.958529634153435 0:0.271572328422754 1:0.856822551523213 2:-0.362145418094494 3:0.745819302287702 4:-0.484662335897182 5:0.743052757232098 6:-0.350426972736371 7:0.647765636836083 8:-0.0926579018248414 9:-1.43070329421066 10:-0.849421009275083 11:3.24567550910375 12:1.2543492643236 13:0.778761890894358 14:0.0975850645406143 15:0.0942195486358291 16:-0.0997676767833436 17:0.257499333164894 18:-1.13122364575373 19:-1.60585258621105 20:-2.77862826928335 21:-1.62759757838268 22:-0.45167526798596 23:-0.2566041455801 24:-0.0978714625061193 25:0.641418388958085 26:-0.328660107117397 27:0.630516239195353 28:-1.51312741780522
0.958529634153435 0:-0.992802183441149 1:0.825464050497814 2:0.114134391411995 3:-0.163201757414084 4:-0.523383287244247 5:0.669785889440706 6:-0.0950867565800132 7:0.370896642522291 8:-1.59364165546844 9:-1.37225773687242 10:-0.740908531510303 11:3.09908195859145 12:1.39069332197228 13:0.484855442402407 14:-0.0691063035922607 15:-0.22721921576203 16:-0.0194637483288076 17:0.471333321247531 18:-0.411738166075846 19:-1.53466036071 20:-2.18405365049864 21:-1.66843119809886 22:1.25108297618734 23:-0.796892402618397 24:0.502281627711589 25:0.312991365840278 26:0.400122222911135 27:0.932862167536749 28:-2.83982395480583
0.958529634153435 0:-1.08516203443373 1:0.760780456724019 2:0.090060744299088 3:-0.0873809893476209 4:-0.561825420829638 5:0.581094417903758 6:-0.28093664519726 7:0.230115797955958 8:-1.51048515210009 9:-1.44355328871532 10:-0.887542539190686 11:3.44945681022154 12:1.34361908859211 13:0.641194304652309 14:-0.0298736600073407 15:-0.108328702411114 16:-0.228005836166272 17:0.0291809770103267 18:-0.835062572783425 19:-1.90565687221142 20:-2.78803420386277 21:-2.16644192628589 22:-0.0844938626768467 23:-0.651518471918748 24:-0.169238888920113 25:0.436901896170379 26:-0.443362579715219 27:0.516208618060048 28:-2.26321498431593
0.958529634153435 0:-1.62658185059711 1:0.805046220422017 2:0.160346046843304 3:-0.449027194434171 4:-0.489477705057564 5:0.73534045535932 6:-0.0501959184907574 7:0.488214012994237 8:-2.20985485308009 9:-1.40591077595206 10:-0.836905061113207 11:3.00318583022819 12:1.36031405260243 13:0.970822038530987 14:-0.0288052753009138 15:-0.297691584530071 16:-0.304619680603269 17:0.300902676447464 18:-0.152634902028042 19:-1.92451683170912 20:-1.97684974517887 21:-1.7656116821944 22:0.654342060337961 23:-0.973375604596868 24:0.151379501938179 25:0.457585091483133 26:0.307880407500192 27:0.583607608045769 28:-2.60926251158002
0.958529634153435 0:-0.62017795702282 1:0.715615489347066 2:0.102112307357711 3:0.198294715766168 4:-0.664688669300487 5:0.920435700305995 6:0.101131701451238 7:0.338047778790144 8:-1.02560100066131 9:-1.39416529654222 10:-0.820226797750104 11:2.47872840766927 12:1.99459183293437 13:0.306594930457466 14:-0.0975862705053076 15:-0.121445397095309 16:0.000649438173386196 17:0.518274697562974 18:-0.766228400320519 19:-1.5614401009594 20:-2.57413028104147 21:-1.49757027360323 22:1.05864253419443 23:-0.750501152698768 24:-0.315769010541802 25:0.11750643454016 26:-0.0774314500701228 27:1.22311418742848 28:-2.53831498762517
0.958529634153435 0:-1.39408981189166 1:0.809488582178145 2:0.0508877464383526 3:-0.272191068223803 4:-0.413898905434246 5:0.619655927267648 6:-0.0877788194101212 7:0.516370181907504 8:-1.78475083702592 9:-1.42047959210652 10:-0.875473267889165 11:3.41715085818754 12:1.25155553799932 13:0.789019278187923 14:-0.00623124465178582 15:-0.301524129694433 16:-0.291755667778709 17:0.293655089394917 18:-0.405568366211253 19:-1.82734127861236 20:-2.38652477827132 21:-1.77204289244284 22:0.0237324599132814 23:-0.527822415411977 24:0.125089724874427 25:0.586297078300784 26:0.594263388520102 27:0.77043833979081 28:-2.72065132870151
0.958529634153435 0:-0.868594107968373 1:0.792913391569246 2:-0.0697178696667098 3:0.115257256312847 4:-0.452636433678287 5:0.812463474087102 6:-0.587614906132385 7:0.239501187593715 8:-1.26525875111176 9:-1.44270908846318 10:-0.7862087763899 11:2.97977279347269 12:1.17638266108339 13:1.34926342709295 14:-0.113671717814447 15:-0.100016829344594 16:-0.180051750021536 17:-0.271516753878373 18:-0.914455501703361 19:-1.93637476742846 20:-2.79860950616113 21:-1.6052276277283 22:-0.492247758808385 23:-1.20165712967399 24:0.220248317317201 25:1.21085056885303 26:-0.618098450811009 27:-0.333170199067997 28:-0.991704433970001
0.958529634153435 0:-0.575590442750541 1:0.84912376656077 2:0.01878853889039 3:0.208064789977878 4:-0.606972400925425 5:0.800895021277934 6:-0.109767743640388 7:0.295813525420251 8:-1.05303952287567 9:-1.3812502052128 10:-0.845637746985469 11:2.59235529985304 12:1.7185316583641 13:0.539785829540456 14:-0.00795144563527826 15:-0.0278085974137817 16:0.162665312130573 17:0.579702158802988 18:-0.743150592107494 19:-1.47983472192368 20:-2.15562743044092 21:-1.58043350709919 22:1.35655924575445 23:-0.707209018627392 24:0.525321515703105 25:0.136109516803555 26:-0.876758252937825 27:0.80198088180614 28:-2.4912245878265
0.958529634153435 0:-0.642471714158959 1:0.873837201660792 2:-0.564834796000013 3:0.4051828811431 4:-0.285149052380176 5:0.851024983450992 6:0.228286867775163 7:0.201959629042691 8:-0.948307156941498 9:-1.42411087711926 10:-0.578615691726502 11:1.95946990657805 12:1.72930677562751 13:0.622050763557906 14:0.614846809683341 15:0.54669194141078 16:-0.0717017852441559 17:0.921454688137736 18:-0.919998591674513 19:-1.77268675868345 20:-1.80077804527297 21:-2.3623904178611 22:-0.374118596330131 23:-1.01399041967139 24:-0.923185223016057 25:0.269330899953597 26:1.27033078785937 27:2.71602916085814 28:-0.818221251252026
0.958529634153435 0:-0.817636948800054 1:0.797155352145507 2:0.303062823660833 3:0.0596714103758134 4:-0.641103193857112 5:0.739196606295709 6:-0.225467066202976 7:0.49759940263199 8:-1.26406222042446 9:-1.40418213993538 10:-0.889445769505772 11:2.98305095733879 12:1.73424965003297 13:0.265405713675736 14:0.0302383688843649 15:-0.0126340738895209 16:-0.15245353228966 17:0.275867570092309 18:-0.726734377941532 19:-1.58216974174767 20:-2.25674111011957 21:-1.67690811477655 22:0.769008346291085 23:-0.116707355963873 24:-0.075798829387455 25:0.355736761551595 26:0.0975432903137023 27:0.916817873957769 28:-2.34499620349453
0.958529634153435 0:-0.903627154896591 1:0.846484427400659 2:-1.066931680436 3:0.425432198840713 4:-0.213893858542894 5:1.06696943588878 6:-0.28676846422455 7:0.675921805749343 8:-1.31895771762959 9:-1.43936784806141 10:-0.495081020992956 11:1.00549491745065 12:1.31139952717106 13:2.36577979890782 14:0.412714006622062 15:1.0010124295295 16:-0.164208071806622 17:0.361745383162798 18:-1.01127059035937 19:-1.98080489053354 20:-1.33944787363392 21:-1.89413606372787 22:-0.523525479606436 23:-2.01765747553373 24:-2.70706031005376 25:-0.119819493036155 26:-1.77574391101964 27:-1.38449426102427 28:-1.4962061447675
0.958529634153435 0:-0.505524348894103 1:0.755110612878436 2:0.0895504919810798 3:0.162547428260177 4:-0.608853447175586 5:0.831744228769047 6:-0.0929135753955062 7:0.277042746144738 8:-1.08814128168401 9:-1.39534428449032 10:-0.871936972947981 11:2.79365678083225 12:1.80653449016423 13:0.365048167936654 14:-0.110703688206141 15:-0.0340413894127194 16:-0.130595375771462 17:0.345221879441871 18:-0.694112473237202 19:-1.52737478068882 20:-2.35370463071346 21:-1.51136633543875 22:0.940149997234874 23:-0.428407429975998 24:-0.15026326683766 25:0.606973035934783 26:0.246174900567015 27:1.10040983193783 28:-2.09457466557014
0.958529634153435 0:-0.664765471295099 1:0.805956599084045 2:0.230449568488808 3:0.138951345094036 4:-0.648646542353761 5:0.835600379705436 6:-0.106983480782606 7:0.122183817121772 8:-1.14072419191827 9:-1.39335340170543 10:-0.760975722528247 11:2.59943240450987 12:1.75873578779073 13:0.36441084966653 14:0.0215523720593327 15:0.0726911198773842 16:0.093394398906323 17:0.496016313950388 18:-0.68222430982592 19:-1.53699726874344 20:-2.08442989485685 21:-1.87497916055323 22:1.23967626951376 23:-0.838533013934197 24:0.0309454275634495 25:0.00335836110566696 26:-0.138708628971485 27:1.17704098827624 28:-2.2621022811375
0.958529634153435 0:-0.237999263260431 1:0.760016294754026 2:0.0529634595754036 3:0.349940014905298 4:-0.543801872456334 5:0.789326568468767 6:-0.111563533507922 7:0.164418070491665 8:-0.723365064606264 9:-1.42192018621967 10:-0.923208736669033 11:3.21049796461119 12:1.53128273669682 13:0.561318894311963 14:-0.149498412201318 15:-0.0333940200124427 16:-0.110349537627755 17:0.301591977844328 18:-0.840837949394516 19:-1.60434192005816 20:-2.7039096669739 21:-1.69794110837326 22:0.684464109511062 23:-0.506967660040909 24:-0.199522389587362 25:0.556082085138147 26:0.132656841577107 27:0.438917061485217 28:-2.16837321545303
0.958529634153435 0:-0.96413878140897 1:0.830630413707396 2:-0.233289826565193 3:0.0648131183798999 4:-0.752978183858703 5:0.878018040005716 6:-0.544992305603753 7:0.305198915058004 8:-1.34649787821902 9:-1.37757533224591 10:-0.755205747294349 11:2.56604677206204 12:1.30627418086215 13:1.18317467598735 14:0.130231105530867 15:-0.156446951457308 16:-0.132465957118095 17:-0.0849305724253642 18:-0.679340129730815 19:-1.65561310074163 20:-2.35911755312357 21:-1.40973148715506 22:0.284529479389035 23:-0.833371769127406 24:-0.131722171659424 25:0.49200450620699 26:0.314531752564596 27:0.155111685820844 28:-2.58756283331137
0.958529634153435 0:-1.2412183343867 1:0.756297174900074 2:0.252729419267588 3:-0.179549633918223 4:-0.483901104078405 5:0.73534045535932 6:-0.236547578786024 7:0.4741359285376 8:-1.81061841764502 9:-1.42706076248081 10:-0.855934932517805 11:2.63739541024748 12:1.88676911757496 13:0.44144023242945 14:0.042267864937214 15:-0.0353448117007374 16:-0.19204757228242 17:0.0811591751877906 18:-0.766123377515876 19:-1.9085325812924 20:-2.37113573106694 21:-2.03360670685134 22:0.806751367325434 23:-0.46796229598837 24:-0.365478006036209 25:-0.226293436885122 26:0.0762124389655415 27:0.742776880954497 28:-2.11006229487979
0.958529634153435 0:-1.08197721198571 1:0.880249922343984 2:-0.488626138085056 3:0.163445260362979 4:-0.518335370507618 5:0.916579549369606 6:-0.594055318295324 7:0.741619533213636 8:-1.54727928598438 9:-1.41181814962169 10:-0.687534813065246 11:1.57908271728929 12:1.09534574595588 13:2.5015143202724 14:0.24404994950028 15:0.43578761585345 16:-0.204633160571721 17:-0.104680350219821 18:-0.816531873000409 19:-1.85693458781477 20:-1.85120979078541 21:-1.48223304234137 22:-0.10488148288738 23:-1.15863356795473 24:-1.44661801017265 25:0.181904593089335 26:-1.61262136192711 27:-1.78068939756733 28:-1.53043865974862
0.958529634153435 0:-0.174302814300033 1:0.821886085026862 2:0.207343813983819 3:0.353812035475192 4:-0.609357276614698 5:0.669785889440706 6:-0.141163981765454 7:0.525755571545257 8:-0.641632721915643 9:-1.4088385616997 10:-0.869267644653992 11:3.2856287715832 12:1.49832855344266 13:0.305818518551683 14:-0.0109228494000055 15:-0.0472747557210009 16:0.0710079586597601 17:0.439526851321419 18:-0.882991760866784 19:-1.49792298904712 20:-2.52701705163292 21:-1.83331525653405 22:0.551955460894888 23:-0.534414079335589 24:0.19428829924641 25:0.602801563892389 26:0.0803076408885903 27:0.941567462007966 28:-2.63914243632862
0.958529634153435 0:-0.432273432589646 1:0.748635965561558 2:0.0680810541327207 3:0.390515198721718 4:-0.703424100445021 5:0.928148002178773 6:-0.0402588096250597 7:0.0142518362875788 8:-0.811195038786803 9:-1.41898154882374 10:-0.899368697604668 11:2.58147838592311 12:1.81959927870518 13:0.616595407402396 14:-0.0165300270897747 15:0.051884247672062 16:-0.017030285158295 17:0.391201221555253 18:-0.986921705779501 19:-1.67468430046923 20:-2.60087678499206 21:-1.65654477067679 22:0.749593388973629 23:-0.893152256052238 24:-0.385786742032602 25:0.285073333867519 26:-0.483036444025154 27:1.09556007231958 28:-2.14450140101142
0.958529634153435 0:-0.359022516285188 1:0.822488637337029 2:0.298665482939543 3:0.335563441388123 4:-0.776385112415964 5:0.831744228769047 6:-0.589087035375233 7:0.53983365600189 8:-0.749075054065318 9:-1.39677117860296 10:-0.763821893438317 11:3.10960579901419 12:1.11453167642816 13:0.959087790572331 14:0.134126832584315 15:-0.11855882127929 16:-0.0531301154082463 17:-0.0873960603621716 18:-0.728603572816572 19:-1.54431523497074 20:-2.46921755991352 21:-1.27522223217994 22:0.00646705947990918 23:-0.651578744602091 24:0.417591321133114 25:0.547851120808129 26:-0.326680256781511 27:0.294730990515759 28:-2.16757748324428
0.958529634153435 0:-0.97369324875303 1:0.784223720554303 2:-0.340330819667698 3:0.198824911047182 4:-0.443007022141342 5:1.01683947371572 6:-0.504925592240474 7:0.014251836287582 8:-1.30116153317733 9:-1.40836732170518 10:-0.759380614589964 11:2.28833187068335 12:1.17117014380048 13:1.82934997394958 14:0.183599612451363 15:-0.129133294329903 16:-0.157181210694799 17:-0.153759040547539 18:-0.814456004939941 19:-1.78496451431682 20:-2.54878573748122 21:-1.37796134429871 22:0.0134915132204592 23:-0.80869838691005 24:-0.409088746593442 25:0.566453509938414 26:0.463417601821201 27:0.0978616602713719 28:-2.53246411613762
0.958529634153435 0:-1.11382543646591 1:0.800696003907801 2:-0.790516719778804 3:-0.00886502006811352 4:-0.181214600423821 5:0.935860304051552 6:-0.405103851277247 7:1.09357164462947 8:-1.88961888851797 9:-1.39427358131454 10:-0.959676609137682 11:0.675250254189972 12:2.65952268272297 13:1.32996959092161 14:0.0101630304231514 15:0.0156468145539288 16:-0.190974386325153 17:-0.105071410372336 18:-0.707266773183458 19:-1.81407411299117 20:-1.81148713610315 21:-0.925848912696648 22:1.87350699166784 23:-0.89773846782754 24:-0.556199647762167 25:0.536263210682707 26:-0.551731933639031 27:1.40742714958891 28:-1.78847162046742
0.958529634153435 0:-0.690244050879258 1:0.863933065749591 2:-1.28530028963331 3:0.0481264762730766 4:-0.473974391541263 5:0.719915851613764 6:-0.100780772054752 7:0.413130895892191 8:-1.25685913544886 9:-1.40769571008063 10:-0.967391437126357 11:3.51640575203896 12:1.14196141479252 13:0.848350165588085 14:-0.0614748594929711 15:-0.138876283665024 16:0.0673903480425178 17:0.473677929872914 18:-0.798439216744103 19:-1.6341178220829 20:-2.43282907812805 21:-1.82573537037638 22:0.91402371502463 23:-0.767481223535366 24:0.831748579229496 25:0.740964413474899 26:0.452269353238643 27:0.603219497021007 28:-2.94994321048628
0.958529634153435 0:-0.658395826399059 1:0.758956265829935 2:0.0105508531638409 3:0.11554827084406 4:-0.689920699077766 5:0.843312681578214 6:-0.0270285710671843 7:0.525755571545257 8:-1.19416273716218 9:-1.4354888291439 10:-0.831594331472717 11:2.62618443783678 12:1.95733824181535 13:0.314450241637231 14:-0.0115819842574691 15:-0.123401577979956 16:0.111106595487026 17:0.367756665290442 18:-0.924309017308007 19:-1.80921591090972 20:-2.63581487160099 21:-2.06012926959046 22:0.908004014891345 23:-1.18141495000049 24:0.0502443262129042 25:-0.00531524236395832 26:-0.000519460133920838 27:1.65584326141833 28:-2.4338380611076
0.958529634153435 0:-0.0564643837232967 1:0.813676010566772 2:-0.0100103586473291 3:0.663005633601793 4:-0.507094041947546 5:0.878018040005716 6:-0.558303853336085 7:0.67122911093047 8:-0.394217684920583 9:-1.43819526942185 10:-0.882234612467747 11:2.51323850568988 12:1.35480721310295 13:1.5292957604546 14:0.108139847852301 15:-0.0444991548395541 16:-0.0529438250324059 17:-0.120265456358186 18:-1.19125745341467 19:-1.79621017625682 20:-2.87504193532649 21:-1.22579243493143 22:-0.428076665887488 23:-0.815266652048317 24:-0.189792589668099 25:0.656384810453414 26:-0.664449146191644 27:-0.915170544211289 28:-1.8777701416338
0.958529634153435 0:-0.473676124413904 1:0.822831762357781 2:-0.0568956993859376 3:0.482921442690053 4:-0.711088496522665 5:1.0939624924435 6:-0.502355759280299 7:0.436594369986584 8:-0.755902019738083 9:-1.40300465293381 10:-0.779377993663203 11:2.49606195582677 12:1.03891269387793 13:1.77379875586923 14:0.234559227029456 15:-0.0423014354862217 16:-0.114981610243813 17:-0.0106325077001045 18:-0.942067456321374 19:-1.64127238937837 20:-2.50070111145564 21:-1.18954094605045 22:-0.274754308743725 23:-0.747268840356885 24:-0.311455690001997 25:0.732491097998235 26:0.269362557885576 27:-0.456775775894021 28:-2.3183333851441
0.958529634153435 0:0.287496440662853 1:0.850266303984766 2:-0.408921155089795 3:0.821761297262026 4:-0.755621407256474 5:0.962853360606275 6:-0.552879554786613 7:0.59145329900955 8:-0.0300700890397 9:-1.38218712959302 10:-0.780785518384511 11:2.75606172045584 12:0.999562997988284 13:1.45351525573259 14:0.24343473886345 15:-0.0150038618891287 16:-0.0940305021709048 17:0.0591891949084272 18:-0.904401088490451 19:-1.42622110261806 20:-2.45224642633673 21:-0.885859387379281 22:-0.383322917798793 23:-0.267909318342584 24:-0.000302456534418771 25:0.841836901547097 26:0.278997118596168 27:-0.412432564330798 28:-2.25917950361744
0.958529634153435 0:-0.394055563213407 1:0.735087334594177 2:0.21253244541708 3:0.47728394548678 4:-0.817178050747146 5:0.94357260592433 6:0.0384028003184457 7:-0.126529008278754 8:-0.683369546507424 9:-1.40071945162921 10:-0.821053150342809 11:2.28525113500146 12:1.92402124306736 13:0.504468692667071 14:0.0783510281157386 15:0.125441901149769 16:0.073951582197385 17:0.505332171751251 18:-0.979467979756829 19:-1.59448978213221 20:-2.34934908732875 21:-1.60654362147226 22:0.974810488809098 23:-0.828111084430113 24:-0.399011306518777 25:0.0911550997002296 26:-0.542760654904042 27:1.23934135542032 28:-2.61546171773812
0.958529634153435 0:-0.142454589819834 1:0.93974065120886 2:0.0166779889012618 3:0.750659354625424 4:-0.663298793490736 5:0.808607323150712 6:-0.575871713984381 7:0.544526350820764 8:-0.373410071123557 9:-1.40595913296363 10:-0.640490960430065 11:1.3725248629791 12:2.10624917896222 13:0.74375561658464 14:0.344733861785236 15:0.557985492763789 16:0.0563683473133342 17:0.286486286958498 18:-0.978274613269277 19:-1.44559869052716 20:-1.6604851444728 21:-1.41554581854834 22:0.296925428581978 23:-0.708235494539361 24:-0.936211011108119 25:-0.818997243714357 26:-2.06977390762495 27:-0.639027700518951 28:-1.52686855396551
0.958529634153435 0:0.201506234566316 1:0.665709367919755 2:-2.08288063515086 3:0.783222471747965 4:0.0453999029435467 5:0.908867247496828 6:-0.400940065781882 7:0.338047778790144 8:-0.014357328228105 9:-1.38084014339514 10:-0.843299503435921 11:2.3217301202128 12:1.9678498450564 13:0.487915201410242 14:-0.110303026261466 15:-0.0234927528209977 16:0.0105543866821973 17:0.0329392394157856 18:-0.882576540597278 19:-1.34835220934287 20:-2.69786809355538 21:-0.878303245451866 22:0.980552457075661 23:-0.468370451263589 24:-0.484460489663644 25:0.908929191539464 26:0.505234933490668 27:-0.231549027595018 28:-2.82467331085254
0.958529634153435 0:-0.550111863166382 1:0.885960255852748 2:-0.790895317479539 3:0.598873547588341 4:-0.434034243368291 5:1.17108551117129 6:-0.398463809894931 7:0.525755571545257 8:-1.13825434178702 9:-1.42259823276542 10:-0.889963656511813 11:0.92232888961524 12:1.4809128348105 13:2.56713122970855 14:0.700451627018305 15:0.584325405358946 16:0.07644624314976 17:0.257165045483192 18:-1.20640115090054 19:-1.96509755493152 20:-1.50311653129352 21:-1.2870914398786 22:0.333828665742058 23:-1.77311942600923 24:-1.15094693797754 25:-0.123275775567704 26:-1.89382210533771 27:-1.02921185313933 28:-2.09540366488009
0.958529634153435 0:-0.237999263260431 1:0.797556811615422 2:-0.00241134606247328 3:0.397995129118375 4:-0.668421405133725 5:0.928148002178773 6:0.00457948541587897 7:0.431901675167701 8:-0.782071635787176 9:-1.39702373906099 10:-0.891045369034583 11:2.49237283590618 12:1.9221706086215 13:0.404296153469682 14:-0.00444876532196518 15:-0.0138205863424563 16:0.213388006302888 17:0.574620596332202 18:-0.947949742394177 19:-1.51378630128295 20:-2.40411375726485 21:-1.59953854270814 22:1.32398178285307 23:-0.749449975661656 24:0.14551354495975 25:0.0922764393660487 26:-0.173036353284345 27:1.25194942891981 28:-2.74728560815004
0.958529634153435 0:-0.518263638686183 1:0.984610805647497 2:-0.362554924305401 3:0.724106282211044 4:-0.70027322562975 5:1.10938709618906 6:-0.39797183539542 7:0.549219045639644 8:-0.781535921654054 9:-1.39069101198643 10:-0.412817467685353 11:1.4666390704037 12:1.27013460468776 13:1.1634863502257 14:1.15081134658152 15:0.828032447857409 16:0.478911138645983 17:0.666152967566176 18:-1.15761168257731 19:-1.5811955675762 20:-1.06016347561436 21:-1.75224143176629 22:0.171477487242553 23:-1.5563616231986 24:0.0404069927749678 25:-0.267085933232078 26:-0.640386228258532 27:1.44011540794278 28:-0.647940490998627
0.958529634153435 0:-0.62336277947084 1:0.43615269098634 2:0.221800171908772 3:0.212566719558488 4:-0.723003560481657 5:0.98599026622461 6:-0.412352014259941 7:-0.192226735743041 8:-0.929984181237838 9:-1.36881614899356 10:-0.748880842726659 11:2.86758292129477 12:1.7608699041807 13:0.149930822030771 14:-0.182535399311963 15:-0.137746303495576 16:-0.116271353808321 17:-0.237165031775347 18:-0.630567805857193 19:-1.45500608018063 20:-2.51959972920988 21:-1.13826683041241 22:0.800744423208242 23:-0.952877905712381 24:-0.723923573635111 25:1.09225118941391 26:1.56006159762552 27:0.0839483619661541 28:-3.87400435855081
0.958529634153435 0:0.236539281494534 1:0.284084233895603 2:-1.38097234324176 3:0.355332326942712 4:1.85782600370301 5:0.095219399918735 6:-0.50501328316451 7:0.352125863246784 8:-0.0862561037816041 9:-1.33950456368719 10:-0.567622244034417 11:4.29074463319238 12:0.716642504929437 13:0.048289623695053 14:-0.232751330902776 15:-0.182104367042766 16:-0.171448865338035 17:-0.359798548825885 18:-0.245011656700605 19:-0.945347601888771 20:-2.58189528812569 21:-1.56465038664763 22:-0.876888212066807 23:0.302974510340451 24:0.208871168147589 25:0.19591744759393 26:-0.51937737686301 27:-1.39314476698896 28:-1.54626277105597
0.0577358246066725 0:0.211060701910375 1:0.761602630426792 2:-0.430450752209404 3:0.763521475967255 4:-0.0868231033136427 5:0.712203549740986 6:-0.509359371903948 7:0.751004922851389 8:-0.139474589029202 9:-1.4053890469845 10:-0.04770126480148 11:0.852190840470239 12:2.24713761740427 13:0.501692995960241 14:0.361326313895616 15:-0.126610488281469 16:-0.179540684389874 17:0.0222620155997235 18:-0.72322150276129 19:-1.39371748527062 20:-2.07919384838684 21:-1.05163393180673 22:-1.86500039060683 23:-0.692158349248814 24:-2.21690046133784 25:-1.34024914838819 26:1.1601621174006 27:2.83943871057891 28:1.50137898074394
0.958529634153435 0:0.191951767222257 1:0.387838606806816 2:-0.492392692605865 3:0.681160417883532 4:0.537605970391451 5:0.507827550112365 6:-0.541767760673433 7:-0.0139043326256878 8:-0.0122886204222239 9:-1.37428273840859 10:0.531791117915896 11:1.06073287111881 12:1.50040515042866 13:0.57691051824318 14:0.351671747941042 15:0.100787568176253 16:-0.113365231872358 17:-0.114042589496424 18:-0.534416524271737 19:-1.3377674696408 20:-2.31648995758808 21:-2.05004652132565 22:-1.84784924950213 23:0.370048929892491 24:-0.900057737953096 25:-0.838743553474098 26:-0.0544368458287589 27:-0.484598063493499 28:1.59647699482599
0.958529634153435 0:-1.09790132422581 1:0.869321214959545 2:-0.654156247633479 3:0.0783228471906233 4:-0.0139830740080835 5:0.878018040005716 6:-0.338176197825009 7:0.596145993828423 8:-1.65061389558076 9:-1.4035327288359 10:-0.14872513053868 11:0.703101220823352 12:1.71146841174802 13:1.86955680848694 14:0.130659175386528 15:-0.331362765603567 16:-0.0112138326374552 17:0.303833950208296 18:-0.473373843453109 19:-1.58271616019682 20:-2.09029666613667 21:-0.875738235758803 22:-0.0565428897376327 23:-2.36785795813376 24:-0.459111751134218 25:-1.33494246340217 26:0.363211911755542 27:0.618289729350012 28:-1.35710542727613
0.958529634153435 0:-0.419534142797566 1:0.686148151619091 2:-0.735508103646024 3:0.334019384608692 4:0.632874119009039 5:0.415279927639027 6:-0.516122150380832 7:-0.107758229003241 8:-0.585970241070764 9:-1.4084729227049 10:-0.348528789267419 11:3.02120253141661 12:1.32057587400188 13:0.0439456012279345 14:0.373807006617754 15:-0.290631745958326 16:0.220284798736591 17:0.0533965682732633 18:-0.608425745254834 19:-1.2683981269011 20:-2.36073660031014 21:-2.06059823622115 22:-0.76238545517515 23:-0.539881964161214 24:0.45334118100842 25:-2.12590799314082 26:-0.559468628904275 27:-0.291034796226039 28:-2.4497954243157
0.958529634153435 0:-1.17115224053026 1:0.664907178998323 2:-0.407916258374168 3:-0.11930151281398 4:0.118547883567942 5:0.750765059104876 6:-0.00396426178164781 7:0.948098105244255 8:-1.41302717540952 9:-1.34226938802587 10:-0.698675128793047 11:1.69645260873691 12:2.55664709037975 13:0.0627511270238053 14:-0.284317196644976 15:-0.3539076312352 16:-0.292506702059693 17:0.313324843014841 18:-0.0876742636180353 19:-1.38433832124464 20:-2.53875447640876 21:-0.97002856468873 22:0.674490094763791 23:0.282801582953106 24:-0.215902623505572 25:-0.410962239037021 26:-0.851279062918514 27:1.33941506053077 28:-0.129400218518924
0.958529634153435 0:0.306605375350973 1:0.688558771052561 2:-1.01570749661271 3:0.637171482405887 4:0.292447679052216 5:0.388286871084304 6:-0.455967723675628 7:0.66653641611159 8:-0.1421055113455 9:-1.38331504188195 10:-0.698907745410888 11:2.70420660824387 12:1.36621054762858 13:1.12329574385642 14:-0.353759576182451 15:-0.20072194823713 16:-0.171333280683034 17:-0.117610217369202 18:-0.636080606374442 19:-1.29691628526593 20:-3.056117953891 21:-0.897802918996844 22:-0.517764990162042 23:-0.827815283764383 24:-1.23983818709378 25:0.47983294779299 26:0.190741933850869 27:-2.15320065566568 28:-1.71564225377432
0.958529634153435 0:-1.15204330584214 1:0.153414816863702 2:0.31482248596798 3:-0.0620435301512373 4:0.0859375250369662 5:0.588806719776536 6:-0.26278510962244 7:0.0564860896574818 8:-1.13240899747754 9:-1.35468772196978 10:-0.845852127517901 11:2.33315313854345 12:2.32682396715448 13:-0.350127176764113 14:0.28879158349037 15:-0.101832237541291 16:-0.314065783636032 17:-0.158515748643224 18:-0.276490823318938 19:-1.43518042286706 20:-2.10360446058845 21:-1.90075258054964 22:-0.407220758829724 23:2.10299905785709 24:-0.0474548245975901 25:-1.30873893165881 26:-1.26163182875837 27:0.402736682301929 28:0.777148004148452
0.958529634153435 0:0.497694722232167 1:0.723292486826643 2:-0.361060842278271 3:0.61453896951994 4:0.0294047337211322 5:0.500115248239587 6:-0.322314822685962 7:1.23904518401468 8:-0.0892683613977092 9:-1.41777867300095 10:-0.686460835921485 11:2.84688138646691 12:1.60860102423366 13:0.406681353289498 14:0.113267927601251 15:-0.113414499521494 16:-0.187370306819967 17:0.0912366694599667 18:-0.677005605323471 19:-1.50826691001729 20:-2.84945888745892 21:-1.67185130225212 22:-1.30561379129032 23:0.77131253824521 24:-0.48504877123861 25:-0.30143767664975 26:0.18563295535555 27:-1.53060291032892 28:-0.394778156499651
0.958529634153435 0:-0.658395826399059 1:0.67513567703843 2:-0.772101542358 3:0.236764613062961 4:0.187411200429399 5:0.712203549740986 6:-0.511035892124936 7:1.00910313788967 8:-0.98361635858772 9:-1.37531709751739 10:-0.327724872284735 11:0.778220266908637 12:2.4271270229099 13:0.868802013758919 14:-0.24933988297062 15:-0.245942229387973 16:-0.166334326406687 17:-0.199840981857524 18:-0.487313209856417 19:-1.44372348594962 20:-2.77190408164538 21:-1.04216265081151 22:0.270645635891929 23:-0.837186224871765 24:-1.77140076880675 25:-0.274408155654109 26:1.44383599471314 27:0.718941942535936 28:-0.162296704564208
0.958529634153435 0:-0.839930705936193 1:0.7976404931563 2:-0.709523037370258 3:0.184281232042451 4:-0.0368627118153612 5:0.719915851613764 6:-0.333760594033421 7:0.511677487088624 8:-1.15383619000995 9:-1.40677598736448 10:-0.322581826814307 11:1.35614918987735 12:2.12168400394242 13:0.199547984246252 14:0.918091267215599 15:-0.198509769723722 16:0.206129226949146 17:0.330412502237314 18:-0.755763391853381 19:-1.54677192691893 20:-1.87290090016615 21:-1.84378063518297 22:-0.391564002275403 23:-0.716349077596673 24:0.335151422430155 25:-3.05890777933464 26:-0.548351601058979 27:0.826903913954048 28:-0.490999924036421
0.958529634153435 0:-1.33357818537928 1:0.78885745991075 2:-0.15381707844117 3:0.032648582136621 4:-0.0783231104521553 5:0.905011096560439 6:-0.0714759597578451 7:0.0189445311064587 8:-1.96449187823787 9:-1.40439785816499 10:-0.580107728258376 11:0.232284554460456 12:2.37553592322192 13:1.88896311570366 14:-0.0213090403369798 15:-0.265607679873956 16:0.0249111779343444 17:0.384928447632362 18:-0.595226579376243 19:-1.75616703629469 20:-1.87640152204385 21:-0.582422759460841 22:0.681795919595631 23:-2.67018195283047 24:-0.601943953106329 25:-1.53588502421906 26:0.0266113994286949 27:0.569430970547359 28:-0.398295772512286
0.958529634153435 0:-0.862224463072333 1:0.808768094351873 2:-1.05431409314114 3:0.249250836664309 4:-0.0109386599163002 5:1.10553094525267 6:-0.571898913491696 7:1.34228447002999 8:-1.22587706253904 9:-1.38134911507294 10:-0.753775497121453 11:2.17527604856682 12:0.89086969301508 13:2.50916946217227 14:-0.103117164160258 15:-0.1828663086607 16:-0.250153343346388 17:-0.184487038880439 18:-0.41052897030978 19:-1.60275055224839 20:-2.33793363522448 21:-0.720255086584658 22:-0.922679040814726 23:-1.3087209024892 24:-0.638774148510058 25:1.25501943091976 26:1.20243619573033 27:-0.295523220528652 28:-1.63789305270082
0.958529634153435 0:-1.10427096912185 1:0.391665616648392 2:-0.291964645567302 3:0.0612983903366089 4:1.26667801535182 5:0.61194362539487 6:-0.218865953079912 7:0.53514096118301 8:-1.17819633190414 9:-1.40156200958107 10:-0.973384278272935 11:1.28577837270858 12:2.89767404378543 13:-0.111132543948051 14:0.816679793409667 15:0.0771594074563156 16:-0.317144061943692 17:-0.0931359529968012 18:-0.601129697836284 19:-1.78392254266694 20:-2.05697625318264 21:-2.0198896962222 22:-0.746545252963372 23:2.02145296690323 24:-0.18360429411336 25:-1.29145472489696 26:-0.897316666237902 27:0.347970879733325 28:0.620536854256791
0.958529634153435 0:-0.769864612079756 1:0.807969739469342 2:-0.608897484429646 3:0.470403333046821 4:-0.0534203207759568 5:1.10553094525267 6:-0.460176863777164 7:0.849551514047822 8:-1.08122356982615 9:-1.36823529349065 10:-0.664222909071454 11:1.76718515372894 12:0.792006833443283 13:2.56959791881614 14:0.535633139731781 15:0.160789476994457 16:-0.282640078281895 17:0.168338052537032 18:-0.47336621372031 19:-1.64297317166646 20:-1.57139804371466 21:-0.735022859089128 22:-1.74712042310521 23:-1.33058516529598 24:-1.36589264616149 25:1.5094335693137 26:1.82490014235558 27:0.344628776872576 28:-0.232702997291897
0.958529634153435 0:-1.00554147323323 1:0.403674899537505 2:-0.0573989884755342 3:0.132342353467315 4:0.377532914608528 5:0.642792832885983 6:-0.131383699447137 7:0.868322293323329 8:-1.19011022662246 9:-1.36340641136768 10:-0.875431317022489 11:1.0090598173434 12:2.68457071139374 13:0.147044588987408 14:1.07149082273822 15:0.160004650169189 16:-0.329507942041127 17:0.120376148468598 18:-0.566808632866018 19:-1.91106232071675 20:-1.54187802963607 21:-1.69723675831027 22:-0.434225835573689 23:2.10082694292472 24:-0.669744019400842 25:-1.24132325862234 26:0.022615982940746 27:-0.201522790289736 28:0.313132073560194
0.958529634153435 0:-1.1456736609461 1:0.687923223143921 2:-1.15967416329882 3:-0.0705960964791883 4:0.216081368210867 5:0.658217436631539 6:-0.453826691590345 7:0.887093072598846 8:-1.42619103527649 9:-1.3958208660798 10:-0.684682566135713 11:1.7356017739202 12:2.41761119429463 13:0.0691366427105898 14:0.0322208782641692 15:0.40775458506297 16:-0.234051648341508 17:-0.101233962356618 18:-0.398609451821697 19:-1.49518192437782 20:-1.94074346554252 21:-2.32310525167482 22:-0.112564976224447 23:0.0872512525827531 24:-1.8922198983785 25:-0.836883084932697 26:1.20836747644864 27:1.73088916895754 28:0.753686625765531
0.958529634153435 0:-1.06605309974561 1:0.737524916776634 2:-0.90575395568245 3:-0.0195637835871629 4:-0.0441075559576733 5:0.511683701048754 6:-0.493779869874509 7:0.112798427484012 8:-1.24453530365736 9:-1.41938993792213 10:-0.70235313227254 11:1.73825270130423 12:2.5959493114061 13:-0.196007086438147 14:0.466109304641785 15:-0.0717011217739079 16:-0.285285243666931 17:-0.263672135484469 18:-0.705448061647406 19:-1.64149728227093 20:-2.36585580149228 21:-1.95113824249423 22:-0.712398060467838 23:1.39509503960856 24:-0.138745548391614 25:-1.44415287981659 26:-0.236707143877733 27:0.678565405114132 28:0.162545231103961
0.958529634153435 0:-0.441827899933705 1:0.774064901762099 2:0.117750161858309 3:0.372732683725192 4:-0.207992872009294 5:0.658217436631539 6:-0.48522545124038 7:0.145647291216158 8:-0.718205019603417 9:-1.4034389157192 10:-0.580365507149051 11:2.60454686415395 12:1.69306584060259 13:0.382659036281736 14:0.0356963035593307 15:-0.316472872381393 16:0.0119305413079209 17:0.075567512263128 18:-0.594366853392035 19:-1.40585126890068 20:-2.57311347836045 21:-1.29887377700254 22:-0.39529273806323 23:-0.785297581273847 24:-0.0718136456170807 25:-0.862084845957654 26:-0.330840938533787 27:0.0193655696786275 28:-2.27157714140747
0.958529634153435 0:-1.03738969771343 1:0.674613749334324 2:-1.10277262064242 3:0.301059696676207 4:0.133447899575098 5:0.924291851242385 6:-0.500937796022174 7:1.72708544517796 8:-1.38884754476572 9:-1.41373987017915 10:-0.898103180236091 11:0.845981220955426 12:2.43865020119757 13:1.50741421221583 14:0.183442076191094 15:-0.215362343647665 16:-0.258840877926043 17:-0.423331410944535 18:-0.78888181909451 19:-1.97167430829791 20:-2.50469715033955 21:-0.479788573002578 22:-0.179119523998148 23:-0.634389070507919 24:-1.18664925132034 25:-0.266855116732613 26:0.589417972501927 27:-0.0235444387781939 28:-0.988475202956671
0.896890391616644 0:0.121885673365818 1:0.699116506526102 2:0.0119689543334611 3:0.597755184592568 4:-0.123540543956176 5:0.642792832885982 6:-0.456652998888351 7:2.08373025141268 8:-0.372884603662576 9:-1.43858412321039 10:-1.03191926095595 11:2.33472522309383 12:1.92245044629148 13:1.24950084642388 14:-0.336492922277231 15:-0.248303659376258 16:-0.179654011094669 17:-0.21319849837523 18:-0.813374765086403 19:-1.71333843302516 20:-3.58604852706254 21:-1.09878862165411 22:-0.667727025401708 23:-0.866015682784519 24:-0.500352718539882 25:0.742034191422524 26:0.106980234815562 27:-0.320147266097174 28:-1.0052320195016
0.958529634153435 0:-0.757125322287676 1:0.784493223421507 2:-1.60924987611928 3:0.411976635185575 4:-0.00393066220354289 5:1.12095554899823 6:-0.555972050258486 7:1.0231812223463 8:-1.21610009637361 9:-1.42854221340758 10:-0.903100764884722 11:0.809118431296525 12:2.07719845865819 13:2.41870835059595 14:-0.23160585347727 15:-0.13557397042641 16:-0.236929301182526 17:-0.452816718217107 18:-0.854188571996811 19:-1.67243053556028 20:-2.35270846731073 21:-0.355298673980772 22:-0.0874041879773269 23:-1.38100030935916 24:-2.41836389960707 25:0.36664648521175 26:1.74869262410287 27:-1.26804327684718 28:-1.97104712396929
0.958529634153435 0:0.115516028469778 1:0.157472234803071 2:0.368182337698058 3:0.39524567884186 4:-0.639607648907323 5:0.557957512285423 6:-0.425839165844603 7:0.347433168427901 8:-0.269860142092463 9:-1.37342226547551 10:-0.884570878796493 11:3.04925061158071 12:1.8829580906592 13:-0.177548942042886 14:0.0357307394574778 15:-0.0483731345943189 16:-0.195777104596384 17:-0.27771408657433 18:-0.459114519894963 19:-1.3365235336536 20:-2.57914292006788 21:-2.12194068966072 22:-0.885162618711417 23:1.40252941640945 24:-0.275990890120012 25:-0.965950347499005 26:-0.582749506425648 27:0.0387085144000422 28:1.07127761491281
0.958529634153435 0:-0.569220797854502 1:0.122450550763354 2:0.268872348547315 3:0.199014955709978 4:-0.338516267997629 5:0.65436128569515 6:0.245250653541618 7:0.483521318175357 8:-0.743328852818566 9:-1.34050296292516 10:-0.885655132570862 11:1.95314005360918 12:2.65802575243402 13:-0.324817149679555 14:0.0516368870144325 15:-0.348503694925519 16:-0.263997711685762 17:0.21242588289436 18:-0.343040908221763 19:-1.37674374220492 20:-2.71556578291059 21:-0.961229665805401 22:0.320119343598158 23:1.7609037881009 24:0.195851623014563 25:-1.34404400851666 26:-0.705404037842475 27:0.71469405936968 28:-0.297704325836309
0.958529634153435 0:-0.782603901871835 1:0.883455243543702 2:-0.228378884903673 3:0.428722443639661 4:-0.403295236059202 5:0.870305738132938 6:-0.373513892854071 7:0.530448266364137 8:-1.11149730995456 9:-1.34990968501425 10:0.105530925716023 11:1.02329391248918 12:0.796966517967207 13:1.99320265539626 14:1.02533820798014 15:0.0461362019375847 16:0.0429892238773607 17:0.608786660711652 18:-0.588560256525587 19:-1.50842026251316 20:-1.32937687867228 21:-1.04642269406541 22:-1.30459765464559 23:-1.74492019980432 24:-0.379093488654165 25:-0.176037899389349 26:1.95793829754932 27:0.637679665902843 28:-0.546864488802171
0.958529634153435 0:-0.859039640624313 1:0.651986260866196 2:-0.337068955813409 3:0.267183843537019 4:0.0820635806596345 5:0.920435700305996 6:-0.576084146898732 7:1.44083106122642 8:-1.17342080253638 9:-1.36886198597649 10:-0.766866603954046 11:1.70825189650577 12:1.1905792538191 13:2.54162826298233 14:-0.178029556507184 15:-0.282928675256003 16:-0.217935088550181 17:-0.45240240999592 18:-0.382178546444052 19:-1.57943084220584 20:-2.59325301673062 21:-0.341410339712637 22:-0.399903173507287 23:-1.27396483599713 24:-0.486373578462746 25:0.91331339466885 26:0.958001313354746 27:0.401168225340421 28:-1.55156788837012
0.958529634153435 0:-0.731646742703517 1:0.715212891955853 2:-0.517148398995765 3:0.106386981364217 4:-0.00575419764194186 5:0.550245210412645 6:-0.593128712393985 7:1.37044063894325 8:-0.960239622207289 9:-1.42494247129182 10:-1.07837106564536 11:2.00714036698558 12:2.95923162197881 13:-0.15843786459765 14:-0.374297355301573 15:-0.231601819362108 16:-0.204289268499809 17:-0.922615233798161 18:-0.87272853897123 19:-1.43694735336606 20:-3.28780161642706 21:-1.48592142764497 22:1.25966431184545 23:1.17545571113255 24:0.120385988086018 25:-0.793788453607071 26:-1.96275296860093 27:-0.623214624872815 28:-0.535468648196415
0.958529634153435 0:0.309790197798993 1:0.828728676529244 2:-0.110643581449861 3:0.773731390513141 4:-0.329267002372599 5:0.824031926896269 6:-0.384470303686349 7:0.521062876726377 8:-0.198528113479648 9:-1.39814725558601 10:0.0285910587088607 11:1.2136483850723 12:1.70654672726837 13:0.903964617010632 14:0.209569511055025 15:-0.0932752569896662 16:0.111452328107957 17:0.422217500500416 18:-0.673667277914982 19:-1.33384137547753 20:-2.37356029926663 21:-1.17880514769782 22:-0.883893926021934 23:-1.80983252855274 24:-0.823303356405267 25:-0.802927334771625 26:-0.0419138695730144 27:0.406375045948962 28:-1.88987447824696
0.958529634153435 0:-1.58199433632483 1:0.600050698232076 2:0.0968458702036255 3:-0.290110032709792 4:-0.0475130160384544 5:0.565669814158201 6:-0.390557076079089 7:1.50183609387183 8:-1.73106664290949 9:-1.40564925514111 10:-0.931525582719346 11:2.83225720834598 12:2.04099436935478 13:0.168003915133647 14:-0.0589423647165009 15:-0.408945549555801 16:-0.379701352919935 17:-0.238090410753463 18:-0.196597525514261 19:-1.76464383778281 20:-2.58364929981821 21:-1.30408367514758 22:-0.824935704232659 23:0.377348279421004 24:-0.297362437338766 25:-0.541744394851291 26:0.133341696385747 27:0.728237941888524 28:-1.22061842499278
0.958529634153435 0:-1.23484868949066 1:0.497214811719238 2:-0.510653089619645 3:0.582499072915238 4:0.880591392590861 5:1.35618075611796 6:-0.143363874062564 7:1.13580589799937 8:-1.52335354630396 9:-1.36801679925389 10:-0.769335262267951 11:-0.0575794321739776 12:1.14338271107264 13:4.25779238022159 14:0.439827282379297 15:-0.0261633600215576 16:-0.258423559287225 17:0.0321136249299108 18:-0.822065913692198 19:-1.85054370054688 20:-1.10532964616672 21:0.375993410906254 22:-0.837863847566231 23:-1.53920498081778 24:-1.99903422902754 25:0.981017133965994 26:1.79993175688896 27:-1.48749858385262 28:-1.38900212483777
0.958529634153435 0:-0.562851152958462 1:0.611747675830352 2:0.112481361693919 3:0.242421898980416 4:-0.754394466207834 5:0.638936681949593 6:-0.148096271363714 7:-0.225075599475181 8:-0.79936322442368 9:-1.39475672271365 10:-0.0776005966846227 11:1.42963285247817 12:1.95698936126429 13:-0.0481159748415962 14:0.822402021835275 15:0.211755685469337 16:0.206526904218122 17:0.455317494905017 18:-0.743221862182443 19:-1.44347702838775 20:-1.71480837738388 21:-2.83806229471234 22:-0.332664642742773 23:-0.258482162528005 24:0.21724701908209 25:-1.74585626375039 26:-0.829948452475928 27:3.33000591671633 28:0.326966403598977
0.958529634153435 0:-0.715722630463417 1:0.834328709510303 2:-1.39628743927625 3:0.424545828498231 4:-0.36797710911192 5:0.978277964351831 6:-0.556126707643314 7:1.34228447002999 8:-1.12531776871747 9:-1.42245364832703 10:-0.831920666522861 11:1.483550279639 12:1.3599912623721 13:2.40042187099827 14:0.524539341179578 15:-0.0997678633305924 16:-0.203529869337758 17:-0.187011644648279 18:-0.82124488183665 19:-1.79836032833935 20:-2.08838648408736 21:-0.930628801461128 22:-1.48246771625912 23:-1.66256722990819 24:-1.1241786545786 25:0.534804345722685 26:2.2563827906688 27:1.25998514017685 28:-0.433205679684642
0.958529634153435 0:-0.995987005889169 1:-0.144731531662426 2:0.74540852923617 3:0.0259202333592335 4:-0.878560282483092 5:0.588806719776536 6:-0.205999699051033 7:-0.262617158026207 8:-0.959151375908656 9:-1.38024671877532 10:-0.924439087664931 11:2.67158524630427 12:2.2349115573051 13:-0.334438023281839 14:0.212867991444149 15:-0.0953534200218441 16:-0.295922659532262 17:-0.228836012873006 18:-0.411381822285373 19:-1.52225961393932 20:-2.38837390078704 21:-2.02543591294909 22:-0.621891476064199 23:2.03768430758212 24:-0.0847114050993923 25:-1.36312491996405 26:-1.20949573995725 27:0.267355974567964 28:0.985906928484427
0.958529634153435 0:-0.116976010235675 1:-0.0126291702383694 2:0.546071040689771 3:0.335987210776826 4:-0.764559595686502 5:0.592662870712924 6:-0.24719130565655 7:-0.243846378750694 8:-0.444103658103209 9:-1.36319532040177 10:-0.867394247721141 11:2.63748173083652 12:2.10809888180828 13:-0.203658753871935 14:0.108747821051804 15:-0.0353628800235133 16:-0.210852849309179 17:-0.146020473852798 18:-0.43920083061968 19:-1.38082888573491 20:-2.35611749658654 21:-1.90016032140454 22:-0.504644957854723 23:1.82998486142544 24:-0.0822871036782175 25:-1.2385365110402 26:-1.13557654054699 27:0.0117065847528986 28:1.00395227923928
0.958529634153435 0:-1.49600413022829 1:0.540185585304274 2:-0.377241412186944 3:-0.11084005449529 4:0.287674812206673 5:0.804751172214324 6:-0.276862491337576 7:0.62899485756057 8:-1.64413866275864 9:-1.39546782119547 10:-0.905649765161975 11:1.84307787999824 12:1.84198551885708 13:1.69187655059852 14:-0.328088905717257 15:-0.456820691905138 16:-0.327088448478561 17:-0.209889522943257 18:-0.229446504016869 19:-1.83619166440881 20:-3.31564591730013 21:-0.70908375447559 22:-0.315203523802956 23:-0.883786543625075 24:-0.207643842384513 25:0.427832386266806 26:0.211342727201084 27:0.598297348574115 28:-1.44019314305281
0.958529634153435 0:-1.07879238953769 1:0.451993539521178 2:0.236178488553814 3:0.327440232274867 4:-0.0178766178146231 5:0.662073587567928 6:-0.177818880786066 7:1.55814843169837 8:-0.980289801986124 9:-1.40133048706666 10:-0.988502935999585 11:0.856992829700926 12:2.89407831224219 13:0.300433420817953 14:0.980810947681994 15:0.149945286704867 16:-0.319786227326658 17:0.0539380919363937 18:-0.888669806542666 19:-2.02535102249694 20:-1.96907826236136 21:-1.2791368250516 22:-0.449395474033792 23:2.18461901197954 24:-1.00137405001348 25:-1.05108714112855 26:0.429717988430533 27:-0.361968347699186 28:0.0874949307706628
0.958529634153435 0:-1.32402371803522 1:0.783913377967302 2:-3.41549143705979 3:0.194857894239968 4:0.124910668480533 5:1.02840792652489 6:-0.11007914883713 7:0.812009955496802 8:-1.57597244605903 9:-1.33699009372139 10:-0.773652681992349 11:0.0294178941311715 12:2.59882807665404 13:1.41860568208578 14:0.685113206603592 15:-0.0583452251473239 16:-0.362619658926708 17:0.251059455412556 18:-0.428046212457851 19:-1.81201447782341 20:-1.4928866454376 21:-0.0744797058330682 22:0.12792225596504 23:0.671796757631304 24:-1.49608514676736 25:-0.669833531203825 26:0.84141839573725 27:-0.28570532359306 28:-1.12405754528607
0.958529634153435 0:-1.65843007507731 1:0.550470775044109 2:0.0530844635301565 3:-0.367930788577949 4:0.0285994096690315 5:0.731484304422931 6:-0.396170485390269 7:1.01848852752742 8:-1.90464729339991 9:-1.416579967691 10:-0.872356303685648 11:2.79236861367464 12:1.93610982267645 13:0.425123883620399 14:-0.194896449419378 15:-0.424226761290372 16:-0.370333649554948 17:-0.31055630419817 18:-0.239593826595217 19:-1.90632133469639 20:-2.91332524917524 21:-1.4613217823839 22:-1.12437985260403 23:-0.540106407266821 24:-0.722216536760714 25:-0.386163777309593 26:0.40371749514654 27:0.483574385291813 28:-1.27449550484425
0.958529634153435 0:-0.222075151020332 1:0.568703323599687 2:-0.571622055968017 3:0.409177267807257 4:-0.00657500218117798 5:0.627368229140426 6:-0.0227908626537483 7:2.14473528405808 8:-0.684392498088129 9:-1.42901938003716 10:-1.04714182579933 11:1.40390846241637 12:2.9229957925666 13:0.294316288996775 14:0.204932666237572 15:-0.267702060247756 16:-0.233707179118485 17:0.0817655503206661 18:-0.878429741270645 19:-1.91668969042763 20:-3.09914799426529 21:-1.14258785403191 22:-0.0459962324031683 23:1.26533300855011 24:-0.0715684683718413 25:-0.809310775949517 26:-0.436698392838781 27:-0.342580191086179 28:-1.59834272817632
0.958529634153435 0:-0.93866020182481 1:0.918315632595488 2:-0.0449150459119147 3:0.289467989267785 4:-0.568972112977167 5:0.866449587196549 6:-0.424882027176905 7:0.530448266364137 8:-1.4119398880328 9:-1.38279797599473 10:0.00547401251972631 11:1.1579076885075 12:0.893300902250419 13:1.7737754490335 14:1.25534261384918 15:0.143400918883809 16:0.156454410790765 17:0.588046224743597 18:-0.743953813929716 19:-1.61975606847262 20:-1.19184397039083 21:-1.62351172043488 22:-1.19145158511554 23:-2.22828493720114 24:-0.213540485768841 25:-1.03286910474078 26:1.06407142651668 27:0.624062939341418 28:-0.191592831841283
0.958529634153435 0:-0.747570854943616 1:0.87987351058157 2:-0.423894796216288 3:0.363123202675498 4:-0.592059566703928 5:0.916579549369607 6:-0.330764046208936 7:0.436594369986584 8:-1.23527459001286 9:-1.43875221550966 10:-0.65790535869909 11:1.09245990633534 12:1.76871793673624 13:1.8225063554293 14:0.47812873151494 15:0.319418124199701 16:-0.0395447893510879 17:0.335719266621655 18:-1.11057114015177 19:-2.01155728938335 20:-1.94392786680251 21:-1.79738707498735 22:-0.221751646926894 23:-1.31331534629257 24:-0.541401812990164 25:-0.562212130197485 26:-0.84729025771688 27:0.081559004473035 28:0.231495007661596
0.958529634153435 0:-1.07879238953769 1:0.325514828825238 2:0.195560751544246 3:-0.0523606738274424 4:0.229690306505343 5:0.677498191313484 6:-0.477080748999388 7:0.0705641741141119 8:-1.25639765027515 9:-1.37694123500759 10:-0.312647393101674 11:1.49127088008728 12:2.39446131043188 13:-0.267779205908907 14:0.383752569405207 15:-0.0479998445749368 16:-0.123817357753867 17:-0.312730697263278 18:-0.428550845078287 19:-1.418826540415 20:-2.10902719064713 21:-2.15102536184802 22:-0.245497790664676 23:0.51213224072564 24:-0.909623987850154 25:-2.08394637118252 26:1.1993843652977 27:2.6008638179771 28:-0.34090461334631
0.958529634153435 0:-1.07242274464165 1:0.37880121971936 2:0.243093539620719 3:0.114726979602838 4:-0.118778143521079 5:0.704491247868208 6:0.0560031714046474 7:1.77870508818562 8:-1.30648575984476 9:-1.42757000112199 10:-1.06318511714676 11:0.514725010414115 12:3.35414851595982 13:0.635735660340132 14:0.167954876358311 15:-0.400406468366966 16:-0.309218620185902 17:-0.0559653123983532 18:-0.789329361219903 19:-2.1056369301115 20:-3.1386585174353 21:-0.758266399611896 22:0.447073042754699 23:1.21095529499717 24:0.000156836153216074 25:-1.02119794666634 26:-0.868505108100509 27:-0.249767165838435 28:-1.76164786860738
0.774436607129592 0:-0.26984748774063 1:0.836241075151566 2:-0.451369497795038 3:0.741865681940078 4:-0.394537258010047 5:0.989846417160999 6:-0.43831330396891 7:1.51122148350959 8:-0.761140079982343 9:-1.41482372838509 10:-0.850701788797298 11:0.212769862105522 12:2.27514841606739 13:2.46592047419081 14:-0.0445037274331742 15:0.0681916073072173 16:-0.196441760847346 17:-0.148583179578565 18:-0.982442629310322 19:-1.60374140283376 20:-2.18300707585342 21:-0.396988629119528 22:-0.0620370657862902 23:-0.949939723167079 24:-3.20869051084292 25:0.284641628953282 26:2.82189526898646 27:-0.510100738827275 28:-0.516243990057013
0.958529634153435 0:-1.59473362611691 1:0.569108472810262 2:-0.218020821529795 3:-0.114424667670366 4:-0.215521989520058 5:0.69292279505904 6:-0.395910062089773 7:1.70362197108357 8:-1.87351011207602 9:-1.4301814632622 10:-0.946056611251628 11:1.60890788408878 12:1.88280183473687 13:1.80268414778727 14:0.192173835727704 15:-0.379003699823963 16:-0.338428029398675 17:-0.385492991302235 18:-0.496039582767893 19:-2.15259443169361 20:-2.8663111727045 21:-0.936103020448661 22:-0.637161246840168 23:-0.321029966888372 24:-0.0631393316685402 25:0.179106331080022 26:0.0400352002322763 27:-0.889715515891191 28:-2.19960972975087
0.958529634153435 0:-0.467306479517865 1:0.899851166496832 2:-0.0848344015914474 3:0.630195422762725 4:-0.445365710797086 5:0.770045813786822 6:-0.39143777726125 7:0.244193882412591 8:-0.79514870539971 9:-1.36789171316329 10:-0.121153316811323 11:1.3362545383487 12:0.812084557772808 13:1.88049358790827 14:1.13306741042904 15:0.14881681506224 16:0.194331801707879 17:0.614468648219236 18:-0.837905656026233 19:-1.46489540256113 20:-1.45868762599242 21:-1.32962079045901 22:-1.57890322440753 23:-1.71456224784885 24:-0.813528808543549 25:-0.394541316301862 26:2.41164229535622 27:0.69651585458682 28:-0.800989136305467
0.958529634153435 0:-0.581960087646581 1:0.677309301362553 2:-0.194529686018625 3:0.459016103636073 4:-0.0780854120237535 5:0.673642040377095 6:-0.132019914871357 7:0.150339986035038 8:-0.911061173623887 9:-1.41052179366966 10:-0.699456010756581 11:0.79733611086603 12:2.32733910291428 13:1.14668693283214 14:0.346041603135978 15:0.381290714623908 16:0.0991275411761057 17:0.433758302368218 18:-1.02232619873928 19:-1.73800981918163 20:-2.11058757774271 21:-1.71472857895786 22:0.721618268952062 23:-0.537834481574678 24:-0.245111812905916 25:-0.598943499322204 26:-1.27377621109793 27:0.975066027072118 28:0.475235252776
0.958529634153435 0:-0.0628340286193364 1:0.146124528130297 2:-0.00465996768230258 3:0.469624657774928 4:0.877224892171547 5:0.642792832885982 6:0.398192896916835 7:0.760390312489143 8:-0.361609098552706 9:-1.33768830261617 10:-0.876308770914198 11:1.66392634089885 12:2.71507956086434 13:-0.220708323237636 14:0.192714946242944 15:-0.275372673501997 16:-0.215292552651068 17:0.374439575179168 18:-0.484008945799276 19:-1.35351040600108 20:-2.55891998398304 21:-0.934738108282343 22:0.281735128589609 23:1.94763177084282 24:0.00139031734740997 25:-1.60104197206539 26:-0.522163352819636 27:0.545230347694124 28:-0.534161106655985
0.958529634153435 0:-0.591514554990641 1:0.735738012646802 2:-0.0153397613201305 3:0.429303366417712 4:-0.515378318015214 5:0.523252153857922 6:-0.517106220261378 7:1.41736758713203 8:-0.780020842056716 9:-1.34380684909523 10:-0.730504277846279 11:2.02631727825378 12:1.83507517375124 13:0.229083534298393 14:0.525014419535455 15:0.615238986366797 16:0.18878066629065 17:0.265029922579975 18:-0.805390166047595 19:-1.49672922861823 20:-1.5621042832566 21:-2.02154267417052 22:0.273678397327296 23:-0.218371447045728 24:-0.237150637062441 25:-0.276561591318232 26:0.521170652291523 27:1.01971821142551 28:-1.12382803694667
0.958529634153435 0:-0.0532795612752769 1:0.623133825426408 2:-0.213266106922369 3:0.918674088087715 4:-0.192585668846867 5:1.01683947371572 6:0.0149594695079778 7:0.0705641741141183 8:-0.528532364238553 9:-1.42492638205447 10:-0.748301667032395 11:-0.139350566772875 12:2.93281541788683 13:1.34502806089794 14:0.528397221444649 15:-0.129072426291734 16:0.0125716030303076 17:0.417357144401713 18:-1.19506206509581 19:-1.73956814898392 20:-2.01405500850916 21:-0.169100873498238 22:-0.640958959075724 23:-1.74596428225652 24:-2.05007014427118 25:-1.44897125070703 26:0.0203912454197 27:0.416024770279768 28:-0.987036280625037
0.958529634153435 0:-0.581960087646581 1:0.681345726097754 2:-0.700837159782679 3:0.357278520935777 4:-0.546404243237832 5:0.800895021277934 6:0.040375365405809 7:0.323969694333514 8:-0.965429380998116 9:-1.38788835032559 10:-0.785146637743068 11:1.55415218480677 12:2.14559697470653 13:0.628821578518933 14:0.263984518389575 15:0.47544648424812 16:0.206491381964178 17:0.634728334832484 18:-1.00102542539164 19:-1.61549651088209 20:-1.96783764716911 21:-1.94322821000229 22:1.35521716293948 23:-0.568422145740645 24:-0.791245951250469 25:-0.943354613599251 26:-0.758994251794587 27:-0.406822902399266 28:-1.38402459499512
0.958529634153435 0:-0.674319938639158 1:0.464299412566938 2:0.217079190274402 3:0.419074011198813 4:0.153192397714225 5:0.98213411528822 6:-0.411059116041316 7:0.225423103137078 8:-1.0818543645181 9:-1.42108326478448 10:-0.800131818881187 11:-0.0843151702476781 12:3.15865997386446 13:1.46027262462762 14:-0.338421630995881 15:-0.262163327237441 16:-0.243347343394306 17:-0.525943526419414 18:-0.755092699956741 19:-1.6011751992752 20:-2.9137769908757 21:-0.103113277415557 22:1.30422128154832 23:-1.07999961447681 24:-2.35905408097184 25:-0.114529248386617 26:0.666991960627084 27:0.562017766997017 28:-0.775901854037972
0.958529634153435 0:-1.39408981189166 1:0.696952852464292 2:0.043858074042736 3:-0.155081500230231 4:-0.269790980753277 5:0.646648983822372 6:-0.529361260994098 7:1.63792424361929 8:-1.66108913895056 9:-1.44427933487413 10:-0.939677558230903 11:1.89521615537162 12:2.65945898480742 13:-0.157557192129344 14:0.608583991068387 15:0.0683198983647735 16:-0.340567599570311 17:-0.471976759056355 18:-0.838737759442466 19:-2.03519411760505 20:-2.48078567459104 21:-2.4196346466875 22:-0.943127360537349 23:1.34756300026437 24:-0.800327757528295 25:-1.37886171344236 26:0.789241027530059 27:0.9661686723056 28:0.270911502276936
0.958529634153435 0:-0.508709171342124 1:0.910341779307727 2:-0.817479360985012 3:0.601296253189726 4:-0.495483134599257 5:1.13252400180739 6:-0.357763836993262 7:0.549219045639644 8:-0.918263286565904 9:-1.39469783410123 10:-0.422289018325726 11:0.781299342254508 12:1.70711320937019 13:1.29999491532761 14:1.45440126827507 15:0.134873410962094 16:0.251239197321237 17:0.615050888141082 18:-0.985425754746522 19:-1.55204326240114 20:-1.38107406834734 21:-1.30389797438475 22:-0.532834022569822 23:-1.38658467673276 24:-0.837976803461881 25:-1.96423307375537 26:0.960292201837366 27:0.540313396944578 28:-1.40333705109901
0.958529634153435 0:-0.508709171342123 1:0.909859100987353 2:-0.957647918938225 3:0.670757537249582 4:-0.464257010795026 5:0.997558719033777 6:-0.406129407631827 7:0.638380247198323 8:-0.804827161131525 9:-1.41859240718722 10:-0.587116837348002 11:1.17171280006114 12:1.47382801432395 13:1.9190208283112 14:0.61183989434839 15:0.505476438877379 16:0.12547734480175 17:0.449961225883641 18:-1.2034769927251 19:-1.76598779861738 20:-1.82553526137898 21:-1.66629392614432 22:-0.255648685278186 23:-1.27627983641173 24:-0.519744292198211 25:-0.439230825300013 26:-1.73300488291671 27:-0.462928863210434 28:-0.33091897385206
0.958529634153435 0:-0.346283226493108 1:0.89359698276011 2:0.158789488056731 3:0.767619697661613 4:-0.762362080762994 5:0.94357260592433 6:-0.369295286485682 7:0.66653641611159 8:-0.571471030984783 9:-1.42072495179276 10:0.0258508537305825 11:1.02170355599231 12:1.52417705644212 13:0.751775948416642 14:1.63559090139292 15:0.0985508181396033 16:0.25245779882573 17:0.616713043765074 18:-1.11896347271275 19:-1.57576733359401 20:-1.68598488575189 21:-1.69418245733152 22:-1.52569061770761 23:-1.26052295175661 24:-0.497469201147334 25:-1.65926533407523 26:0.748166520649694 27:1.38038884321355 28:-1.24712808075831
0.958529634153435 0:-0.394055563213406 1:0.643706741274893 2:0.425062002757628 3:0.557331619036107 4:-0.634578219380091 5:0.608087474458481 6:-0.194665046285044 7:-0.229768294294061 8:-0.429634535357633 9:-1.41781754977974 10:-0.41064874784374 11:1.52338456245689 12:2.1075118543588 13:0.042627518524032 14:0.973522107608802 15:0.226352992439952 16:0.256515449382014 17:0.460857637290182 18:-1.09692329099561 19:-1.50065918790414 20:-1.9681095203497 21:-2.6006276657395 22:-0.908481296743372 23:0.0846815742446781 24:0.351835207570884 25:-1.86110526180103 26:-0.628431532007824 27:2.45762463747964 28:0.266359480593357
0.958529634153435 0:-0.515078816238163 1:0.632105994835012 2:0.0774417491702293 3:0.377706843813308 4:-0.764844938961968 5:0.681354342249873 6:-0.106604536864149 7:-0.135914397916507 8:-0.747696795815885 9:-1.39860698590138 10:-0.322492681969762 11:1.54452761174453 12:1.84920282350679 13:0.146760263849155 14:1.09240719595123 15:0.391654571225906 16:0.362115093918414 17:0.572132854549743 18:-0.919775757365892 19:-1.5260704752171 20:-1.52137010097065 21:-2.87511764744842 22:-0.169527080265903 23:-0.334553312139684 24:0.487891590288707 25:-1.72173161259348 26:-0.567456528309841 27:2.6608565734041 28:0.39829527122758
0.958529634153435 0:-0.521448461134203 1:0.95624717245686 2:-0.40086547980997 3:0.508380270170084 4:-0.464149554107124 5:0.889586492814883 6:-0.419954120835518 7:0.314584304695758 8:-1.02831545405592 9:-1.37409003386579 10:0.197661336875693 11:1.0542079946697 12:0.877919276418382 13:1.39771389416357 14:1.54837493627868 15:0.220020188639206 16:0.420592779379284 17:0.671820855491296 18:-0.939058745401162 19:-1.49360668053989 20:-1.1799998786473 21:-1.80941447910194 22:-0.894258573045494 23:-1.96642021367683 24:-0.372520120879518 25:-1.61647285878237 26:1.54284779860884 27:0.226555870751653 28:-1.14753950104903
0.958529634153435 0:-0.317619824460929 1:0.772832468846831 2:0.0126315950596112 3:0.668166247679724 4:-0.510589198490216 5:0.723772002550153 6:-0.53751827448835 7:1.53468495760397 8:-0.282979283172286 9:-1.37511979287005 10:-0.8312775275844 11:2.78850968230021 12:1.62194491449603 13:0.12219868825536 14:0.284522759445134 15:0.52091757071607 16:0.279110050561057 17:0.21155078234326 18:-0.986531019348407 19:-1.42273466498841 20:-2.09541636420287 21:-2.07617494339544 22:0.188589274744386 23:-0.697103411608188 24:-0.321354382194285 25:0.0692208514669115 26:0.318089913377296 27:1.3120701191193 28:-1.01017655162511
0.958529634153435 0:-0.62336277947084 1:0.912802010510412 2:-0.225614324743753 3:0.358031422609757 4:-0.566020489905056 5:0.82017577595988 6:-0.359502084544803 7:0.394360116616681 8:-0.991213090325625 9:-1.44898625730181 10:-0.717352041698784 11:2.01597070654387 12:1.6943290355987 13:0.882311200336638 14:0.48173110175346 15:0.624589274963462 16:0.235187556035746 17:0.4339952506047 18:-1.39958703419359 19:-1.87004597862135 20:-2.06850402943834 21:-2.67706433451688 22:-0.560188838056167 23:-1.48790657777638 24:-0.386859436123129 25:-0.875477408767333 26:-0.890568925443316 27:-0.226824831647021 28:-0.198776712475151
0.958529634153435 0:-0.763494967183716 1:0.282878035586219 2:0.500546960982444 3:0.39009883946045 4:-0.810065975109376 5:0.646648983822372 6:-0.204487096579788 7:1.26720135292794 8:-0.87905562272596 9:-1.42433676640192 10:-1.01371312033958 11:1.06315970155521 12:2.77496160482552 13:0.37372224212398 14:1.00186757494177 15:0.182241455983825 16:-0.294101604764015 17:-0.0754409885002381 18:-1.01844256953005 19:-2.16483659357836 20:-2.08640450580215 21:-1.59094595216408 22:-0.604215261895466 23:1.92803770145775 24:-1.14981264042411 25:-1.09562223915748 26:0.447352137840025 27:-0.178926141605706 28:0.295784393152947
0.958529634153435 0:-0.438643077485685 1:0.67504736163965 2:0.220949487979555 3:0.461059078157668 4:-0.583935993466448 5:0.635080531013204 6:-0.32174159346563 7:0.0236372259253386 8:-0.623310185390131 9:-1.43408828970564 10:-0.582156204050358 11:1.65129093816803 12:2.13259565770662 13:0.0711644860044939 14:1.00669568011942 15:0.330099573062651 16:0.426176405371524 17:0.286997212538329 18:-1.16030792891618 19:-1.57553615746126 20:-2.00860320861782 21:-3.01696974315218 22:-0.723154820131404 23:-0.473364419821944 24:0.156327911874067 25:-2.0982299537589 26:-0.689631641062009 27:2.05037321331914 28:0.160181529791126
0.958529634153435 0:-0.413164497901526 1:0.903346379600579 2:-0.315730616751562 3:0.691554097594411 4:-0.680762439992787 5:0.951284907797108 6:-0.385424801902664 7:0.614916773103936 8:-0.676238302021398 9:-1.431927084412 10:-0.304018729381721 11:1.65435910498729 12:1.05987155752969 13:1.82985238114296 14:0.390482437614758 15:0.500455618669904 16:0.290106580581514 17:0.513583570041269 18:-1.23945208576791 19:-1.72763941865015 20:-2.17828631574588 21:-1.95879660160165 22:-0.649541358682549 23:-1.84093734575776 24:-0.02550933648403 25:0.0395851679761735 26:-0.935474434524426 27:0.343963828893992 28:-0.083723070688774
